{"learner":{"attributes":{"scikit_learn":"{\"_estimator_type\": \"classifier\"}"},"feature_names":[],"feature_types":[],"gradient_booster":{"model":{"cats":{"enc":[],"feature_segments":[],"sorted_idx":[]},"gbtree_model_param":{"num_parallel_tree":"1","num_trees":"100"},"iteration_indptr":[0,1,2,3,4,5,6,7,8,9,10,11,12,13,14,15,16,17,18,19,20,21,22,23,24,25,26,27,28,29,30,31,32,33,34,35,36,37,38,39,40,41,42,43,44,45,46,47,48,49,50,51,52,53,54,55,56,57,58,59,60,61,62,63,64,65,66,67,68,69,70,71,72,73,74,75,76,77,78,79,80,81,82,83,84,85,86,87,88,89,90,91,92,93,94,95,96,97,98,99,100],"tree_info":[0,0,0,0,0,0,0,0,0,0,0,0,0,0,0,0,0,0,0,0,0,0,0,0,0,0,0,0,0,0,0,0,0,0,0,0,0,0,0,0,0,0,0,0,0,0,0,0,0,0,0,0,0,0,0,0,0,0,0,0,0,0,0,0,0,0,0,0,0,0,0,0,0,0,0,0,0,0,0,0,0,0,0,0,0,0,0,0,0,0,0,0,0,0,0,0,0,0,0,0],"trees":[{"base_weights":[-5.8303744E-8,1.8052149E-1,-9.97725E-2,2.4606396E-1,-2.3876348E-1,5.392455E-1,-1.5344441E-1,1.1305374E0,2.195076E-1,8.24144E-1,-3.8193023E-1,7.623765E-1,-5.019626E-1,-3.9410913E-1,-7.2185606E-2,8.766454E-3,6.670687E-2,6.1550964E-2,1.9840792E-1,1.38591705E-2,5.7520267E-2,2.3430277E-1,-6.8660766E-1,8.507076E-1,-3.572234E-2,-1.1251551E0,3.3831552E-1,-4.9511087E-1,3.839693E-1,-1.3603072E-1,2.7035576E-1,1.8922653E-2,3.6467405E-3,4.8514795E-2,-2.8572822E-2,-4.6930596E-2,1.663499E-2,6.0452916E-2,2.4194345E-2,-1.3477944E-2,-6.9573976E-2,5.325525E-2,-2.2565966E-2,9.30658E-3,-2.9833822E-2,5.1229257E-2,-2.35939E-2,3.7621919E-3,-1.2053311E-2,2.1651775E-2,-2.0929899E-2],"categories":[],"categories_nodes":[],"categories_segments":[],"categories_sizes":[],"default_left":[0,0,0,0,0,0,0,0,0,0,0,0,0,0,0,0,0,0,0,0,0,0,0,0,0,0,0,0,0,0,0,0,0,0,0,0,0,0,0,0,0,0,0,0,0,0,0,0,0,0,0],"id":0,"left_children":[1,3,5,7,9,11,13,15,17,19,21,23,25,27,29,-1,-1,-1,31,-1,-1,33,35,37,-1,39,41,43,45,47,49,-1,-1,-1,-1,-1,-1,-1,-1,-1,-1,-1,-1,-1,-1,-1,-1,-1,-1,-1,-1],"loss_changes":[1.2980725E1,7.108737E0,1.6002438E1,4.974531E0,5.669512E0,8.789799E0,8.360749E0,9.7975826E-1,4.389476E0,4.8304057E-1,6.111649E0,4.547035E0,4.0406055E0,8.6820545E0,7.0771036E0,0E0,0E0,0E0,4.803837E0,0E0,0E0,7.215197E0,5.825526E0,3.2204075E0,0E0,5.9201574E-1,2.6299891E0,6.758848E0,7.599175E0,6.0544643E0,5.887232E0,0E0,0E0,0E0,0E0,0E0,0E0,0E0,0E0,0E0,0E0,0E0,0E0,0E0,0E0,0E0,0E0,0E0,0E0,0E0,0E0],"parents":[2147483647,0,0,1,1,2,2,3,3,4,4,5,5,6,6,7,7,8,8,9,9,10,10,11,11,12,12,13,13,14,14,18,18,21,21,22,22,23,23,25,25,26,26,27,27,28,28,29,29,30,30],"right_children":[2,4,6,8,10,12,14,16,18,20,22,24,26,28,30,-1,-1,-1,32,-1,-1,34,36,38,-1,40,42,44,46,48,50,-1,-1,-1,-1,-1,-1,-1,-1,-1,-1,-1,-1,-1,-1,-1,-1,-1,-1,-1,-1],"split_conditions":[-2.951913E-1,1.6110009E0,-1.4359684E0,-7.988474E-1,-1.1425388E0,-3.77027E-2,-3.27056E-1,-6.03771E-1,-1.234617E0,-2.348894E-1,-2.1817663E0,-2.1173623E-1,1.8917985E-1,5.695831E-1,9.123267E-1,8.766454E-3,6.670687E-2,6.1550964E-2,-7.829933E-1,1.38591705E-2,5.7520267E-2,-1.103149E0,1.8654926E0,-5.5384076E-1,-3.572234E-2,3.070196E-1,3.5365698E-1,-1.1001797E0,1.1157653E0,-5.2293867E-1,2.000158E0,1.8922653E-2,3.6467405E-3,4.8514795E-2,-2.8572822E-2,-4.6930596E-2,1.663499E-2,6.0452916E-2,2.4194345E-2,-1.3477944E-2,-6.9573976E-2,5.325525E-2,-2.2565966E-2,9.30658E-3,-2.9833822E-2,5.1229257E-2,-2.35939E-2,3.7621919E-3,-1.2053311E-2,2.1651775E-2,-2.0929899E-2],"split_indices":[12,9,18,4,17,11,13,11,16,4,12,13,11,17,19,0,0,0,10,0,0,10,0,7,0,12,11,17,17,20,13,0,0,0,0,0,0,0,0,0,0,0,0,0,0,0,0,0,0,0,0],"split_type":[0,0,0,0,0,0,0,0,0,0,0,0,0,0,0,0,0,0,0,0,0,0,0,0,0,0,0,0,0,0,0,0,0,0,0,0,0,0,0,0,0,0,0,0,0,0,0,0,0,0,0],"sum_hessian":[7.18708E2,2.5554062E2,4.6316736E2,2.2135208E2,3.418854E1,3.5186745E1,4.2798062E2,5.240579E0,2.161115E2,3.4937193E0,3.069482E1,2.9197512E1,5.989233E0,1.0705754E2,3.209231E2,1.247757E0,3.9928222E0,3.244168E0,2.1286732E2,1.9964111E0,1.4973083E0,1.02316065E1,2.0463213E1,2.7949755E1,1.247757E0,3.244168E0,2.7450652E0,9.507908E1,1.1978466E1,2.7101282E2,4.991028E1,8.659433E1,1.26273E2,5.240579E0,4.991028E0,1.6470392E1,3.9928222E0,1.2976672E1,1.49730835E1,1.247757E0,1.9964111E0,1.247757E0,1.4973083E0,1.2228018E1,8.285106E1,6.7378874E0,5.240579E0,9.008805E1,1.8092476E2,4.0676876E1,9.233401E0],"tree_param":{"num_deleted":"0","num_feature":"21","num_nodes":"51","size_leaf_vector":"1"}},{"base_weights":[3.114791E-4,1.724461E-1,-9.477316E-2,2.3461714E-1,-2.2502136E-1,5.130774E-1,-1.4573127E-1,1.0890023E0,2.0902918E-1,7.999452E-1,-3.6299232E-1,7.2739625E-1,-4.8420298E-1,-3.7408912E-1,-6.8588726E-2,6.451313E-2,7.889122E-3,5.9363224E-2,1.8868224E-1,5.672074E-2,1.2688175E-2,2.2457375E-1,-6.530313E-1,8.129011E-1,-3.470717E-2,-1.0873717E0,3.2983828E-1,-4.701568E-1,3.6734933E-1,-1.0868934E-1,4.293025E-1,1.8003574E-2,3.466403E-3,4.658347E-2,-2.7359044E-2,-4.4656005E-2,1.5979962E-2,5.7837095E-2,2.308633E-2,-1.2786507E-2,-6.74163E-2,5.1864315E-2,-2.18783E-2,8.879936E-3,-2.8329927E-2,4.9122375E-2,-2.2586467E-2,-3.565196E-3,-2.8826335E-2,4.583465E-2,-2.2256044E-3],"categories":[],"categories_nodes":[],"categories_segments":[],"categories_sizes":[],"default_left":[0,0,0,0,0,0,0,0,0,0,0,0,0,0,0,0,0,0,0,0,0,0,0,0,0,0,0,0,0,0,0,0,0,0,0,0,0,0,0,0,0,0,0,0,0,0,0,0,0,0,0],"id":1,"left_children":[1,3,5,7,9,11,13,15,17,19,21,23,25,27,29,-1,-1,-1,31,-1,-1,33,35,37,-1,39,41,43,45,47,49,-1,-1,-1,-1,-1,-1,-1,-1,-1,-1,-1,-1,-1,-1,-1,-1,-1,-1,-1,-1],"loss_changes":[1.1794829E1,6.3892193E0,1.4453672E1,4.6306934E0,5.2673845E0,8.073937E0,7.533124E0,9.6298313E-1,4.095232E0,5.319226E-1,5.550005E0,4.227316E0,3.7912245E0,7.874218E0,6.4748187E0,0E0,0E0,0E0,4.3479257E0,0E0,0E0,6.6341257E0,5.302294E0,2.9539852E0,0E0,5.771599E-1,2.4857416E0,6.10783E0,6.975229E0,5.1842804E0,5.6293993E0,0E0,0E0,0E0,0E0,0E0,0E0,0E0,0E0,0E0,0E0,0E0,0E0,0E0,0E0,0E0,0E0,0E0,0E0,0E0,0E0],"parents":[2147483647,0,0,1,1,2,2,3,3,4,4,5,5,6,6,7,7,8,8,9,9,10,10,11,11,12,12,13,13,14,14,18,18,21,21,22,22,23,23,25,25,26,26,27,27,28,28,29,29,30,30],"right_children":[2,4,6,8,10,12,14,16,18,20,22,24,26,28,30,-1,-1,-1,32,-1,-1,34,36,38,-1,40,42,44,46,48,50,-1,-1,-1,-1,-1,-1,-1,-1,-1,-1,-1,-1,-1,-1,-1,-1,-1,-1,-1,-1],"split_conditions":[-2.951913E-1,1.6110009E0,-1.4359684E0,-7.988474E-1,-1.1425388E0,-3.77027E-2,-3.27056E-1,-1.1185897E-1,-1.234617E0,-8.5815376E-1,-2.1817663E0,-2.1173623E-1,1.8917985E-1,5.695831E-1,1.6431236E0,6.451313E-2,7.889122E-3,5.9363224E-2,-7.829933E-1,5.672074E-2,1.2688175E-2,-1.103149E0,1.8654926E0,-5.5384076E-1,-3.470717E-2,-4.9864617E-1,3.5365698E-1,-1.1001797E0,1.1157653E0,1.85043E0,9.225161E-1,1.8003574E-2,3.466403E-3,4.658347E-2,-2.7359044E-2,-4.4656005E-2,1.5979962E-2,5.7837095E-2,2.308633E-2,-1.2786507E-2,-6.74163E-2,5.1864315E-2,-2.18783E-2,8.879936E-3,-2.8329927E-2,4.9122375E-2,-2.2586467E-2,-3.565196E-3,-2.8826335E-2,4.583465E-2,-2.2256044E-3],"split_indices":[12,9,18,4,17,11,13,17,16,18,12,13,11,17,20,0,0,0,10,0,0,10,0,7,0,20,11,17,17,10,12,0,0,0,0,0,0,0,0,0,0,0,0,0,0,0,0,0,0,0,0],"split_type":[0,0,0,0,0,0,0,0,0,0,0,0,0,0,0,0,0,0,0,0,0,0,0,0,0,0,0,0,0,0,0,0,0,0,0,0,0,0,0,0,0,0,0,0,0,0,0,0,0,0,0],"sum_hessian":[7.186327E2,2.5542159E2,4.632111E2,2.2122737E2,3.419421E1,3.512742E1,4.2808368E2,5.224411E0,2.1600296E2,3.4875765E0,3.0706635E1,2.9136505E1,5.9909124E0,1.0712431E2,3.2095938E2,3.9789066E0,1.2455045E0,3.2326655E0,2.127703E2,1.4950495E0,1.992527E0,1.0222805E1,2.0483828E1,2.7887257E1,1.2492485E0,3.2482975E0,2.742615E0,9.516034E1,1.1963973E1,2.9775928E2,2.3200102E1,8.651721E1,1.2625308E2,5.226752E0,4.9960537E0,1.6494095E1,3.989734E0,1.2931696E1,1.4955561E1,1.2487159E0,1.9995816E0,1.2440652E0,1.4985498E0,1.2222934E1,8.29374E1,6.718883E0,5.2450905E0,2.7679285E2,2.0966423E1,1.0975461E1,1.2224642E1],"tree_param":{"num_deleted":"0","num_feature":"21","num_nodes":"51","size_leaf_vector":"1"}},{"base_weights":[6.2243536E-4,1.6477449E-1,-9.00016E-2,2.2373281E-1,-2.1217172E-1,6.4002275E-1,-1.2842613E-1,1.0501939E0,1.990699E-1,7.767638E-1,-3.4527013E-1,7.5969017E-1,-2.154017E-2,3.3591318E-1,-1.5910675E-1,6.222366E-2,7.6724E-3,5.7329424E-2,1.7944235E-1,1.19089E-2,5.55635E-2,2.1540792E-1,-6.216398E-1,8.978565E-1,-1.9440925E-2,6.030354E-1,-5.841212E-1,-3.0069652E-1,-4.8127305E-2,1.4923748E-3,1.566113E-2,4.476824E-2,-2.620617E-2,-4.25364E-2,1.5352081E-2,5.6065124E-2,8.4714545E-3,-4.291891E-2,3.7588596E-2,-4.3264028E-2,6.9674053E-3,4.0743157E-2,-1.635204E-2,3.2316905E-2,-4.718461E-3],"categories":[],"categories_nodes":[],"categories_segments":[],"categories_sizes":[],"default_left":[0,0,0,0,0,0,0,0,0,0,0,0,0,0,0,0,0,0,0,0,0,0,0,0,0,0,0,0,0,0,0,0,0,0,0,0,0,0,0,0,0,0,0,0,0],"id":2,"left_children":[1,3,5,7,9,11,13,15,17,19,21,23,-1,25,27,-1,-1,-1,29,-1,-1,31,33,35,-1,37,39,41,43,-1,-1,-1,-1,-1,-1,-1,-1,-1,-1,-1,-1,-1,-1,-1,-1],"loss_changes":[1.071707E1,5.742464E0,1.3102591E1,4.317584E0,4.8978367E0,3.3228693E0,6.3473387E0,8.894229E-1,3.827651E0,5.424378E-1,5.044842E0,3.7432194E0,0E0,7.1606197E0,6.5080833E0,0E0,0E0,0E0,4.266652E0,0E0,0E0,6.1045756E0,4.832368E0,2.9667282E0,0E0,5.4190245E0,1.4918561E0,5.6211452E0,7.57199E0,0E0,0E0,0E0,0E0,0E0,0E0,0E0,0E0,0E0,0E0,0E0,0E0,0E0,0E0,0E0,0E0],"parents":[2147483647,0,0,1,1,2,2,3,3,4,4,5,5,6,6,7,7,8,8,9,9,10,10,11,11,13,13,14,14,18,18,21,21,22,22,23,23,25,25,26,26,27,27,28,28],"right_children":[2,4,6,8,10,12,14,16,18,20,22,24,-1,26,28,-1,-1,-1,30,-1,-1,32,34,36,-1,38,40,42,44,-1,-1,-1,-1,-1,-1,-1,-1,-1,-1,-1,-1,-1,-1,-1,-1],"split_conditions":[-2.951913E-1,1.6110009E0,-1.1685336E0,-7.988474E-1,-1.1425388E0,2.3791413E0,-1.1639358E0,-1.1185897E-1,-1.234617E0,1.1975031E0,-2.1817663E0,-1.3636327E0,-2.154017E-2,1.190874E0,2.3815033E-1,6.222366E-2,7.6724E-3,5.7329424E-2,-5.8195233E-1,1.19089E-2,5.55635E-2,-1.103149E0,1.8654926E0,7.321957E-2,-1.9440925E-2,-9.6435636E-1,1.6723374E-1,-1.2487159E0,-5.648025E-1,1.4923748E-3,1.566113E-2,4.476824E-2,-2.620617E-2,-4.25364E-2,1.5352081E-2,5.6065124E-2,8.4714545E-3,-4.291891E-2,3.7588596E-2,-4.3264028E-2,6.9674053E-3,4.0743157E-2,-1.635204E-2,3.2316905E-2,-4.718461E-3],"split_indices":[12,9,10,4,17,4,19,17,16,19,12,18,0,18,11,0,0,0,14,0,0,10,0,12,0,18,4,0,20,0,0,0,0,0,0,0,0,0,0,0,0,0,0,0,0],"split_type":[0,0,0,0,0,0,0,0,0,0,0,0,0,0,0,0,0,0,0,0,0,0,0,0,0,0,0,0,0,0,0,0,0,0,0,0,0,0,0,0,0,0,0,0,0],"sum_hessian":[7.18424E2,2.5525288E2,4.6317114E2,2.2108011E2,3.4172783E1,2.2376947E1,4.407942E2,5.2012973E0,2.1587881E2,3.4799995E0,3.0692783E1,2.0388987E1,1.9879615E0,2.6703165E1,4.1409103E2,3.9563844E0,1.2449129E0,3.2158663E0,2.1266295E2,1.9892126E0,1.490787E0,1.0206724E1,2.048606E1,1.8394373E1,1.9946133E0,2.0961708E1,5.741458E0,1.8120131E2,2.3288971E2,1.0097474E2,1.116882E2,5.2077637E0,4.9989605E0,1.6499807E1,3.9862516E0,1.3663676E1,4.730697E0,1.4955934E0,1.9466114E1,3.9934728E0,1.7479851E0,3.489879E0,1.7771144E2,1.3728997E1,2.1916072E2],"tree_param":{"num_deleted":"0","num_feature":"21","num_nodes":"45","size_leaf_vector":"1"}},{"base_weights":[9.3071104E-4,1.9502015E-1,-6.93896E-2,8.915719E-1,9.976582E-2,9.013547E-1,-8.827199E-2,9.726474E-1,-1.4391328E-2,7.708883E-1,2.9954854E-2,3.9233893E-1,7.3082134E-2,-1.5738986E-1,7.722676E-2,-1.4391328E-2,1.0636122E0,1.1124008E0,1.3800547E-1,1.2702112E-1,-3.918527E-1,5.511507E-2,-4.6446127E-1,-1.0711143E-1,-5.934169E-1,1.01182E0,-2.7095139E-2,5.995995E-3,5.726954E-2,2.080841E-2,6.7151755E-2,-1.8957349E-2,2.6520068E-2,-1.8414471E-2,1.2528638E-2,-5.6256115E-2,-6.6410466E-3,-4.2798605E-2,8.8728815E-3,-7.1771587E-3,3.6347356E-2,4.7227975E-2,-3.5289023E-2,4.7536134E-3,5.8020897E-2,3.301473E-2,-5.29215E-3],"categories":[],"categories_nodes":[],"categories_segments":[],"categories_sizes":[],"default_left":[0,0,0,0,0,0,0,0,0,0,0,0,0,0,0,0,0,0,0,0,0,0,0,0,0,0,0,0,0,0,0,0,0,0,0,0,0,0,0,0,0,0,0,0,0,0,0],"id":3,"left_children":[1,3,5,7,9,11,13,15,-1,17,19,21,-1,23,25,-1,27,29,31,33,35,-1,37,39,41,43,45,-1,-1,-1,-1,-1,-1,-1,-1,-1,-1,-1,-1,-1,-1,-1,-1,-1,-1,-1,-1],"loss_changes":[9.829801E0,1.2619738E1,9.770294E0,2.4712334E0,7.924124E0,2.328867E0,5.954736E0,2.7908745E0,0E0,3.2920732E0,6.3830113E0,4.5870733E0,0E0,7.977458E0,1.501457E1,0E0,1.4389305E0,1.0809784E0,1.5666006E0,7.833734E0,5.393307E0,0E0,1.0916349E0,1.0134443E1,7.181941E0,1.9959383E0,7.6078415E0,0E0,0E0,0E0,0E0,0E0,0E0,0E0,0E0,0E0,0E0,0E0,0E0,0E0,0E0,0E0,0E0,0E0,0E0,0E0,0E0],"parents":[2147483647,0,0,1,1,2,2,3,3,4,4,5,5,6,6,7,7,9,9,10,10,11,11,13,13,14,14,16,16,17,17,18,18,19,19,20,20,22,22,23,23,24,24,25,25,26,26],"right_children":[2,4,6,8,10,12,14,16,-1,18,20,22,-1,24,26,-1,28,30,32,34,36,-1,38,40,42,44,46,-1,-1,-1,-1,-1,-1,-1,-1,-1,-1,-1,-1,-1,-1,-1,-1,-1,-1,-1,-1],"split_conditions":[-4.300098E-1,-6.453709E-1,-7.988474E-1,1.8329017E0,-9.167213E-1,5.880228E-1,4.5670158E-1,-1.1977189E0,-1.4391328E-2,3.6337683E-1,1.5612607E0,-5.389649E-1,7.3082134E-2,1.3586917E0,2.1265897E-1,-1.4391328E-2,-5.1042086E-1,-5.1816183E-1,-6.4159274E-1,-6.202616E-1,1.6268159E0,5.511507E-2,-5.518462E-1,5.6295645E-1,-2.9194436E0,-5.750286E-1,-5.4744476E-1,5.995995E-3,5.726954E-2,2.080841E-2,6.7151755E-2,-1.8957349E-2,2.6520068E-2,-1.8414471E-2,1.2528638E-2,-5.6256115E-2,-6.6410466E-3,-4.2798605E-2,8.8728815E-3,-7.1771587E-3,3.6347356E-2,4.7227975E-2,-3.5289023E-2,4.7536134E-3,5.8020897E-2,3.301473E-2,-5.29215E-3],"split_indices":[11,7,4,4,17,18,13,19,0,13,1,20,0,2,10,0,4,20,11,19,0,0,0,1,13,0,20,0,0,0,0,0,0,0,0,0,0,0,0,0,0,0,0,0,0,0,0],"split_type":[0,0,0,0,0,0,0,0,0,0,0,0,0,0,0,0,0,0,0,0,0,0,0,0,0,0,0,0,0,0,0,0,0,0,0,0,0,0,0,0,0,0,0,0,0,0,0],"sum_hessian":[7.1822327E2,1.9054132E2,5.27682E2,2.191644E1,1.6862488E2,9.1766205E0,5.185054E2,2.0670767E1,1.2456714E0,1.4941676E1,1.536832E2,5.699201E0,3.4774194E0,3.6578864E2,1.5271672E2,1.2456714E0,1.9425097E1,9.212702E0,5.728975E0,1.25501656E2,2.818155E1,2.959973E0,2.7392278E0,3.2908713E2,3.6701508E1,1.4461431E1,1.382553E2,1.7457888E0,1.7679306E1,2.9902544E0,6.2224474E0,2.4861515E0,3.2428231E0,2.4660093E1,1.0084156E2,6.4837413E0,2.1697807E1,1.494353E0,1.2448747E0,3.1610742E2,1.2979696E1,1.9945675E0,3.470694E1,2.2458527E0,1.2215578E1,1.3451581E1,1.248037E2],"tree_param":{"num_deleted":"0","num_feature":"21","num_nodes":"47","size_leaf_vector":"1"}},{"base_weights":[1.2951102E-3,1.8576245E-1,-6.5486394E-2,8.512885E-1,9.4994806E-2,8.689715E-1,-8.359508E-2,9.2952585E-1,-1.3985884E-2,7.4019665E-1,2.802695E-2,3.7696138E-1,7.058261E-2,3.6792347E-1,-1.0699642E-1,-1.3985884E-2,1.0173489E0,1.0694206E0,1.3226125E-1,1.2068045E-1,-3.743035E-1,5.3322133E-2,-4.5009044E-1,7.027072E-1,-1.3139085E-1,-3.675751E-1,-2.656233E-2,5.9340514E-2,2.2092944E-2,2.0048512E-2,6.4566694E-2,-1.8266277E-2,2.5530433E-2,-1.751211E-2,1.1917797E-2,-5.3769823E-2,-6.323217E-3,-4.1866057E-2,9.020388E-3,4.5752995E-2,-3.14344E-2,-5.908983E-2,5.9209745E-3,-2.2800257E-2,2.3166059E-2,9.293278E-3,-4.7176233E-3],"categories":[],"categories_nodes":[],"categories_segments":[],"categories_sizes":[],"default_left":[0,0,0,0,0,0,0,0,0,0,0,0,0,0,0,0,0,0,0,0,0,0,0,0,0,0,0,0,0,0,0,0,0,0,0,0,0,0,0,0,0,0,0,0,0,0,0],"id":4,"left_children":[1,3,5,7,9,11,13,15,-1,17,19,21,-1,23,25,-1,27,29,31,33,35,-1,37,39,41,43,45,-1,-1,-1,-1,-1,-1,-1,-1,-1,-1,-1,-1,-1,-1,-1,-1,-1,-1,-1,-1],"loss_changes":[8.870223E0,1.1480335E1,9.018722E0,2.281372E0,7.3047395E0,2.1747603E0,5.5288296E0,2.5781593E0,0E0,3.0415297E0,5.8096504E0,4.290075E0,0E0,4.409286E0,1.0359039E1,0E0,1.4602356E0,9.915924E-1,1.4531403E0,7.0907326E0,4.9359417E0,0E0,1.0644038E0,4.990623E0,3.0809221E0,8.779202E0,5.4767795E0,0E0,0E0,0E0,0E0,0E0,0E0,0E0,0E0,0E0,0E0,0E0,0E0,0E0,0E0,0E0,0E0,0E0,0E0,0E0,0E0],"parents":[2147483647,0,0,1,1,2,2,3,3,4,4,5,5,6,6,7,7,9,9,10,10,11,11,13,13,14,14,16,16,17,17,18,18,19,19,20,20,22,22,23,23,24,24,25,25,26,26],"right_children":[2,4,6,8,10,12,14,16,-1,18,20,22,-1,24,26,-1,28,30,32,34,36,-1,38,40,42,44,46,-1,-1,-1,-1,-1,-1,-1,-1,-1,-1,-1,-1,-1,-1,-1,-1,-1,-1,-1,-1],"split_conditions":[-4.300098E-1,-6.453709E-1,-7.988474E-1,1.8329017E0,-9.167213E-1,5.880228E-1,-1.4921608E0,-1.1977189E0,-1.3985884E-2,3.6337683E-1,1.5612607E0,-5.389649E-1,7.058261E-2,-5.732564E-1,-2.5674874E-1,-1.3985884E-2,-7.931378E-1,-5.1816183E-1,-6.4159274E-1,-6.202616E-1,1.6268159E0,5.3322133E-2,-6.4185184E-1,2.3791413E0,-5.4965043E-1,4.6691874E-1,2.1265897E-1,5.9340514E-2,2.2092944E-2,2.0048512E-2,6.4566694E-2,-1.8266277E-2,2.5530433E-2,-1.751211E-2,1.1917797E-2,-5.3769823E-2,-6.323217E-3,-4.1866057E-2,9.020388E-3,4.5752995E-2,-3.14344E-2,-5.908983E-2,5.9209745E-3,-2.2800257E-2,2.3166059E-2,9.293278E-3,-4.7176233E-3],"split_indices":[11,7,4,4,17,18,18,19,0,13,1,20,0,1,18,0,3,20,11,19,0,0,17,4,1,17,10,0,0,0,0,0,0,0,0,0,0,0,0,0,0,0,0,0,0,0,0],"split_type":[0,0,0,0,0,0,0,0,0,0,0,0,0,0,0,0,0,0,0,0,0,0,0,0,0,0,0,0,0,0,0,0,0,0,0,0,0,0,0,0,0,0,0,0,0,0,0],"sum_hessian":[7.180563E2,1.9038455E2,5.276717E2,2.1843678E1,1.6854086E2,9.138027E0,5.185337E2,2.0597021E1,1.2466569E0,1.4903179E1,1.536377E2,5.681574E0,3.4564528E0,2.482494E1,4.9370874E2,1.2466569E0,1.9350365E1,9.175263E0,5.7279153E0,1.2544805E2,2.818964E1,2.9406319E0,2.7409422E0,1.4617053E1,1.0207888E1,1.1560819E2,3.7810056E2,1.4127928E1,5.222436E0,2.9864151E0,6.1888485E0,2.4889584E0,3.2389567E0,2.4685083E1,1.0076297E2,6.4903903E0,2.1699251E1,1.4948345E0,1.2461078E0,1.2876072E1,1.7409804E0,1.2444468E0,8.963441E0,1.0489562E2,1.0712568E1,9.104843E1,2.8705212E2],"tree_param":{"num_deleted":"0","num_feature":"21","num_nodes":"47","size_leaf_vector":"1"}},{"base_weights":[1.4331836E-3,1.4440177E-1,-7.731681E-2,1.9291525E-1,-2.31866E-1,4.6460906E-1,-1.2249578E-1,2.1228082E-1,-6.2728393E-1,-6.0039634E-1,1.8387225E-1,6.6489345E-1,-4.6060362E-1,-4.2256922E-1,-7.428624E-2,1.479049E-1,6.710522E-1,3.015407E-2,-1.1305687E0,-7.294148E-2,-1.6490103E-1,5.060012E-1,-6.603732E-1,7.4640936E-1,-3.3517227E-2,-1.0415553E0,3.228399E-1,1.6535947E-1,-5.311078E-1,4.085842E-1,-1.0618069E-1,1.0367932E-2,-1.7680248E-2,6.1029106E-2,1.8974693E-2,-6.981301E-2,-1.3666734E-2,-3.4033675E-2,2.2139598E-2,3.6488526E-2,-3.552537E-2,3.330937E-2,-6.8742506E-2,5.395713E-2,2.0518085E-2,-1.187073E-2,-6.4869314E-2,5.0536234E-2,-2.1127053E-2,3.1408306E-2,-2.1114346E-2,-5.910113E-2,-1.5362741E-2,3.584845E-2,-2.4713535E-2,-3.2779094E-2,-2.8586409E-3],"categories":[],"categories_nodes":[],"categories_segments":[],"categories_sizes":[],"default_left":[0,0,0,0,0,0,0,0,0,0,0,0,0,0,0,0,0,0,0,0,0,0,0,0,0,0,0,0,0,0,0,0,0,0,0,0,0,0,0,0,0,0,0,0,0,0,0,0,0,0,0,0,0,0,0,0,0],"id":5,"left_children":[1,3,5,7,9,11,13,15,17,19,21,23,25,27,29,31,33,-1,35,-1,37,39,41,43,-1,45,47,49,51,53,55,-1,-1,-1,-1,-1,-1,-1,-1,-1,-1,-1,-1,-1,-1,-1,-1,-1,-1,-1,-1,-1,-1,-1,-1,-1,-1],"loss_changes":[8.103657E0,4.711236E0,1.1420504E1,3.7386093E0,4.653222E0,6.9632497E0,6.177666E0,6.472109E0,4.0805483E0,5.723036E0,4.331477E0,3.7592087E0,3.5147796E0,3.8653936E0,5.7572327E0,5.929473E0,3.8783398E0,0E0,5.847764E-1,0E0,3.9718597E0,3.568758E0,5.1745815E0,2.765255E0,0E0,5.656152E-1,2.3431416E0,2.9816732E0,6.9528112E0,6.812106E0,9.354334E0,0E0,0E0,0E0,0E0,0E0,0E0,0E0,0E0,0E0,0E0,0E0,0E0,0E0,0E0,0E0,0E0,0E0,0E0,0E0,0E0,0E0,0E0,0E0,0E0,0E0,0E0],"parents":[2147483647,0,0,1,1,2,2,3,3,4,4,5,5,6,6,7,7,8,8,9,9,10,10,11,11,12,12,13,13,14,14,15,15,16,16,18,18,20,20,21,21,22,22,23,23,25,25,26,26,27,27,28,28,29,29,30,30],"right_children":[2,4,6,8,10,12,14,16,18,20,22,24,26,28,30,32,34,-1,36,-1,38,40,42,44,-1,46,48,50,52,54,56,-1,-1,-1,-1,-1,-1,-1,-1,-1,-1,-1,-1,-1,-1,-1,-1,-1,-1,-1,-1,-1,-1,-1,-1,-1,-1],"split_conditions":[-2.951913E-1,1.625434E0,-1.4359684E0,1.6017979E0,-2.348894E-1,-3.77027E-2,-1.3776247E-1,-2.6477188E-1,-4.6435592E-1,1.6615059E0,1.9923018E0,-2.1173623E-1,1.8917985E-1,-4.507465E-1,-1.1639358E0,-3.417809E-1,-7.6813805E-1,3.015407E-2,8.97825E-1,-7.294148E-2,5.9580547E-1,5.732978E-1,1.7499143E0,-5.5384076E-1,-3.3517227E-2,3.070196E-1,3.5365698E-1,-1.6013458E-1,-6.161133E-1,1.190874E0,-9.906824E-1,1.0367932E-2,-1.7680248E-2,6.1029106E-2,1.8974693E-2,-6.981301E-2,-1.3666734E-2,-3.4033675E-2,2.2139598E-2,3.6488526E-2,-3.552537E-2,3.330937E-2,-6.8742506E-2,5.395713E-2,2.0518085E-2,-1.187073E-2,-6.4869314E-2,5.0536234E-2,-2.1127053E-2,3.1408306E-2,-2.1114346E-2,-5.910113E-2,-1.5362741E-2,3.584845E-2,-2.4713535E-2,-3.2779094E-2,-2.8586409E-3],"split_indices":[12,20,18,18,4,11,11,11,20,15,15,13,11,11,19,11,17,0,10,0,13,10,0,7,0,12,11,4,13,18,19,0,0,0,0,0,0,0,0,0,0,0,0,0,0,0,0,0,0,0,0,0,0,0,0,0,0],"split_type":[0,0,0,0,0,0,0,0,0,0,0,0,0,0,0,0,0,0,0,0,0,0,0,0,0,0,0,0,0,0,0,0,0,0,0,0,0,0,0,0,0,0,0,0,0,0,0,0,0,0,0,0,0,0,0,0,0],"sum_hessian":[7.1777185E2,2.5464207E2,4.631298E2,2.2599152E2,2.8650557E1,3.4924416E1,4.2820538E2,2.2150284E2,4.488681E0,1.4952115E1,1.36984415E1,2.8940842E1,5.983575E0,5.8197567E1,3.700078E2,1.9540546E2,2.6097378E1,1.2455153E0,3.2431655E0,4.2415333E0,1.0710582E1,1.0205207E1,3.493235E0,2.7691286E1,1.2495543E0,3.2466264E0,2.7369487E0,8.988016E0,4.9209553E1,2.2193636E1,3.4781418E2,1.7521979E2,2.0185682E1,7.941954E0,1.8155424E1,1.9957914E0,1.2473739E0,5.7284937E0,4.982088E0,8.957619E0,1.2475883E0,1.2464861E0,2.246749E0,1.2803143E1,1.48881445E1,1.2489327E0,1.9976935E0,1.2382392E0,1.4987096E0,4.989519E0,3.998497E0,1.1497376E1,3.7712173E1,1.6696545E1,5.497091E0,2.7471275E1,3.203429E2],"tree_param":{"num_deleted":"0","num_feature":"21","num_nodes":"57","size_leaf_vector":"1"}},{"base_weights":[1.0993035E-3,1.693658E-1,-5.9728153E-2,8.04845E-1,8.306612E-2,8.370145E-1,-7.700956E-2,8.806223E-1,-1.3884085E-2,4.7871137E-1,-1.8086247E-2,3.6440155E-1,6.797609E-2,7.693266E-2,-1.4405409E-1,-1.3884085E-2,9.657408E-1,-5.084567E-1,6.722431E-1,5.0300825E-2,-8.868777E-1,5.1642086E-2,-4.32679E-1,-1.3169777E-1,3.2515356E-1,-2.4788916E-1,3.1952262E-2,5.64599E-2,2.0736134E-2,-6.119429E-2,1.4841849E-2,3.961842E-2,-5.6232173E-2,4.6710957E-2,1.444813E-4,-7.394531E-2,1.3140428E-2,-4.0898543E-2,9.411858E-3,1.2608342E-2,-1.825316E-2,9.498756E-3,3.7450187E-2,4.8682366E-2,-1.3489771E-2,5.4715294E-2,-3.3905692E-3],"categories":[],"categories_nodes":[],"categories_segments":[],"categories_sizes":[],"default_left":[0,0,0,0,0,0,0,0,0,0,0,0,0,0,0,0,0,0,0,0,0,0,0,0,0,0,0,0,0,0,0,0,0,0,0,0,0,0,0,0,0,0,0,0,0,0,0],"id":6,"left_children":[1,3,5,7,9,11,13,15,-1,17,19,21,-1,23,25,-1,27,29,31,33,35,-1,37,39,41,43,45,-1,-1,-1,-1,-1,-1,-1,-1,-1,-1,-1,-1,-1,-1,-1,-1,-1,-1,-1,-1],"loss_changes":[7.3635297E0,1.0408806E1,8.253454E0,2.108593E0,6.783827E0,1.992588E0,5.3712893E0,2.3856468E0,0E0,6.9340997E0,8.112261E0,3.9933977E0,0E0,8.236266E0,6.626154E0,0E0,1.3537769E0,3.9498878E0,7.211385E0,5.312217E0,7.1694117E0,0E0,1.048898E0,7.8564854E0,4.013964E0,6.3605604E0,1.4409175E1,0E0,0E0,0E0,0E0,0E0,0E0,0E0,0E0,0E0,0E0,0E0,0E0,0E0,0E0,0E0,0E0,0E0,0E0,0E0,0E0],"parents":[2147483647,0,0,1,1,2,2,3,3,4,4,5,5,6,6,7,7,9,9,10,10,11,11,13,13,14,14,16,16,17,17,18,18,19,19,20,20,22,22,23,23,24,24,25,25,26,26],"right_children":[2,4,6,8,10,12,14,16,-1,18,20,22,-1,24,26,-1,28,30,32,34,36,-1,38,40,42,44,46,-1,-1,-1,-1,-1,-1,-1,-1,-1,-1,-1,-1,-1,-1,-1,-1,-1,-1,-1,-1],"split_conditions":[-4.300098E-1,-6.453709E-1,-7.988474E-1,1.8329017E0,-5.305888E-1,5.880228E-1,-5.130842E-1,-1.1977189E0,-1.3884085E-2,-8.212278E-1,-1.6099846E-1,-5.389649E-1,6.797609E-2,-9.906824E-1,4.3948913E-1,-1.3884085E-2,-7.931378E-1,-4.77206E-1,1.8118045E0,-5.828862E-1,6.37313E-1,5.1642086E-2,-5.450883E-1,-1.1639358E0,4.2749074E-1,-2.6843271E0,1.7512783E-1,5.64599E-2,2.0736134E-2,-6.119429E-2,1.4841849E-2,3.961842E-2,-5.6232173E-2,4.6710957E-2,1.444813E-4,-7.394531E-2,1.3140428E-2,-4.0898543E-2,9.411858E-3,1.2608342E-2,-1.825316E-2,9.498756E-3,3.7450187E-2,4.8682366E-2,-1.3489771E-2,5.4715294E-2,-3.3905692E-3],"split_indices":[11,7,4,4,17,18,20,19,0,19,10,20,0,19,13,0,3,18,0,8,18,0,7,19,17,13,10,0,0,0,0,0,0,0,0,0,0,0,0,0,0,0,0,0,0,0,0],"split_type":[0,0,0,0,0,0,0,0,0,0,0,0,0,0,0,0,0,0,0,0,0,0,0,0,0,0,0,0,0,0,0,0,0,0,0,0,0,0,0,0,0,0,0,0,0,0,0],"sum_hessian":[7.17442E2,1.9001651E2,5.274255E2,2.1723854E1,1.6829265E2,9.075168E0,5.1835034E2,2.0476969E1,1.2468846E0,3.350588E1,1.3478677E2,5.656351E0,3.418816E0,1.5721603E2,3.6113428E2,1.2468846E0,1.9230085E1,5.225314E0,2.8280565E1,1.2582458E2,8.962201E0,2.915555E0,2.740796E0,8.56752E1,7.154084E1,2.2687863E2,1.3425565E2,1.4021402E1,5.208682E0,2.491789E0,2.7335248E0,2.7032429E1,1.2481365E0,5.4531574E0,1.20371414E2,5.726827E0,3.235374E0,1.4954661E0,1.2453301E0,3.2362053E1,5.331315E1,5.5339603E1,1.6201235E1,3.2316117E0,2.2364703E2,1.0669569E1,1.23586075E2],"tree_param":{"num_deleted":"0","num_feature":"21","num_nodes":"47","size_leaf_vector":"1"}},{"base_weights":[1.322932E-3,1.6097857E-1,-5.633526E-2,7.7088666E-1,7.85283E-2,8.0908555E-1,-7.291358E-2,-6.3684927E-3,8.632977E-1,6.7718476E-1,1.6827514E-2,3.506678E-1,6.590189E-2,7.337811E-2,-1.3660602E-1,9.501824E-1,-1.3493927E-2,6.328296E-2,3.1781566E-1,1.01725675E-1,-3.5119352E-1,5.0055273E-2,-4.1948012E-1,-1.2516378E-1,3.0979767E-1,-3.5546333E-1,-5.907337E-2,3.1513583E-2,6.1464738E-2,-4.049019E-2,3.247915E-2,-1.7195908E-2,1.067292E-2,-6.0150918E-2,-7.903564E-3,-3.9878376E-2,9.350432E-3,1.20055815E-2,-1.7347436E-2,3.6725894E-2,9.105043E-3,4.6948828E-2,-2.0570097E-2,-9.767439E-3,1.15592955E-2],"categories":[],"categories_nodes":[],"categories_segments":[],"categories_sizes":[],"default_left":[0,0,0,0,0,0,0,0,0,0,0,0,0,0,0,0,0,0,0,0,0,0,0,0,0,0,0,0,0,0,0,0,0,0,0,0,0,0,0,0,0,0,0,0,0],"id":7,"left_children":[1,3,5,7,9,11,13,-1,15,17,19,21,-1,23,25,27,-1,-1,29,31,33,-1,35,37,39,41,43,-1,-1,-1,-1,-1,-1,-1,-1,-1,-1,-1,-1,-1,-1,-1,-1,-1,-1],"loss_changes":[6.6195235E0,9.533618E0,7.6388364E0,1.986517E0,6.237736E0,1.8739724E0,4.8487034E0,0E0,2.2872305E0,2.9353275E0,4.859812E0,3.7414026E0,0E0,7.4629183E0,6.1239386E0,9.555664E-1,0E0,0E0,4.6912174E0,6.358919E0,4.607852E0,0E0,1.0068959E0,7.105602E0,3.797422E0,7.2312717E0,1.0669857E1,0E0,0E0,0E0,0E0,0E0,0E0,0E0,0E0,0E0,0E0,0E0,0E0,0E0,0E0,0E0,0E0,0E0,0E0],"parents":[2147483647,0,0,1,1,2,2,3,3,4,4,5,5,6,6,8,8,9,9,10,10,11,11,13,13,14,14,15,15,18,18,19,19,20,20,22,22,23,23,24,24,25,25,26,26],"right_children":[2,4,6,8,10,12,14,-1,16,18,20,22,-1,24,26,28,-1,-1,30,32,34,-1,36,38,40,42,44,-1,-1,-1,-1,-1,-1,-1,-1,-1,-1,-1,-1,-1,-1,-1,-1,-1,-1],"split_conditions":[-4.300098E-1,-6.453709E-1,-7.988474E-1,-5.1042086E-1,-9.167213E-1,5.880228E-1,-5.130842E-1,-6.3684927E-3,1.8329017E0,-8.5815376E-1,1.5612607E0,-5.389649E-1,6.590189E-2,-9.906824E-1,-3.27056E-1,2.40196E-2,-1.3493927E-2,6.328296E-2,-4.5249587E-1,-6.202616E-1,1.5924497E0,5.0055273E-2,-6.4185184E-1,-1.1639358E0,-8.212278E-1,-2.6843271E0,6.0025644E-1,3.1513583E-2,6.1464738E-2,-4.049019E-2,3.247915E-2,-1.7195908E-2,1.067292E-2,-6.0150918E-2,-7.903564E-3,-3.9878376E-2,9.350432E-3,1.20055815E-2,-1.7347436E-2,3.6725894E-2,9.105043E-3,4.6948828E-2,-2.0570097E-2,-9.767439E-3,1.15592955E-2],"split_indices":[11,7,4,4,17,18,20,0,4,18,1,20,0,19,13,4,0,0,18,19,0,0,17,19,19,13,19,0,0,0,0,0,0,0,0,0,0,0,0,0,0,0,0,0,0],"split_type":[0,0,0,0,0,0,0,0,0,0,0,0,0,0,0,0,0,0,0,0,0,0,0,0,0,0,0,0,0,0,0,0,0,0,0,0,0,0,0,0,0,0,0,0,0],"sum_hessian":[7.1710187E2,1.8978763E2,5.273143E2,2.1606737E1,1.681809E2,9.013021E0,5.183012E2,1.9802234E0,1.9626514E1,1.4782011E1,1.5339888E2,5.6305423E0,3.3824794E0,1.5716515E2,3.6113608E2,1.8378832E1,1.2476829E0,4.64835E0,1.0133661E1,1.25232735E2,2.8166143E1,2.88993E0,2.7406123E0,8.568155E1,7.14836E1,9.3531876E1,2.6760422E2,1.0081652E1,8.297179E0,1.9761595E0,8.157502E0,2.4687817E1,1.0054492E2,4.239079E0,2.3927065E1,1.4941168E0,1.2464955E0,3.2338326E1,5.334322E1,1.5425677E1,5.605792E1,3.2205827E0,9.0311295E1,1.8232869E2,8.527551E1],"tree_param":{"num_deleted":"0","num_feature":"21","num_nodes":"45","size_leaf_vector":"1"}},{"base_weights":[1.5603756E-3,2.959168E-1,-2.9077826E-2,3.8655043E-1,-4.5980477E-1,1.2348253E-1,-1.0936382E-1,5.0053865E-1,-5.0050974E-1,-1.0963868E0,4.1420874E-1,3.2716167E-1,1.4570802E-2,-5.501804E-1,-7.622722E-2,5.584672E-1,-1.8787275E-1,-1.1009706E0,2.2100821E-1,-6.732937E-2,-1.1040373E-2,5.112156E-2,-1.1701068E-2,-2.0611838E-2,5.8774024E-1,-1.7153235E-1,2.3274381E-1,-7.041507E-3,-9.1644675E-1,1.3864751E-1,-1.4604458E-1,5.368389E-2,1.952259E-2,-4.8171517E-2,3.2555632E-2,-1.086631E-2,-6.9765255E-2,-3.3546608E-2,5.5687387E-2,6.5328493E-3,-5.653959E-2,6.393185E-2,2.1734722E-2,1.1599805E-2,-1.7787937E-2,2.7011836E-2,-9.78281E-3,4.7050223E-2,-2.467375E-2,1.6895289E-2,-5.4867752E-2,-6.0529565E-3,2.6919836E-2,-1.7551264E-2,-2.241324E-3],"categories":[],"categories_nodes":[],"categories_segments":[],"categories_sizes":[],"default_left":[0,0,0,0,0,0,0,0,0,0,0,0,0,0,0,0,0,0,0,0,0,0,0,0,0,0,0,0,0,0,0,0,0,0,0,0,0,0,0,0,0,0,0,0,0,0,0,0,0,0,0,0,0,0,0],"id":8,"left_children":[1,3,5,7,9,11,13,15,17,19,21,23,25,27,29,31,33,35,37,-1,-1,-1,-1,39,41,43,45,47,49,51,53,-1,-1,-1,-1,-1,-1,-1,-1,-1,-1,-1,-1,-1,-1,-1,-1,-1,-1,-1,-1,-1,-1,-1,-1],"loss_changes":[6.480956E0,4.817947E0,7.9863257E0,6.422037E0,4.744658E0,4.984422E0,6.1955285E0,2.2816954E0,3.4709826E0,7.401767E-1,1.8066849E0,7.1092625E0,6.032649E0,5.9006815E0,5.995846E0,3.9608803E0,3.8709393E0,7.977853E-1,4.104889E0,0E0,0E0,0E0,0E0,5.943452E0,4.1817303E0,6.046653E0,9.1117325E0,6.4442973E0,4.393441E0,1.0259678E1,6.231911E0,0E0,0E0,0E0,0E0,0E0,0E0,0E0,0E0,0E0,0E0,0E0,0E0,0E0,0E0,0E0,0E0,0E0,0E0,0E0,0E0,0E0,0E0,0E0,0E0],"parents":[2147483647,0,0,1,1,2,2,3,3,4,4,5,5,6,6,7,7,8,8,9,9,10,10,11,11,12,12,13,13,14,14,15,15,16,16,17,17,18,18,23,23,24,24,25,25,26,26,27,27,28,28,29,29,30,30],"right_children":[2,4,6,8,10,12,14,16,18,20,22,24,26,28,30,32,34,36,38,-1,-1,-1,-1,40,42,44,46,48,50,52,54,-1,-1,-1,-1,-1,-1,-1,-1,-1,-1,-1,-1,-1,-1,-1,-1,-1,-1,-1,-1,-1,-1,-1,-1],"split_conditions":[-1.398896E0,-3.77027E-2,-2.951913E-1,1.87485E0,1.8917985E-1,-4.706622E-1,-2.5142348E-1,1.793187E0,2.0677369E0,-1.5609214E0,-2.4693592E0,-5.9183455E-1,2.865466E-1,-3.5330284E-1,-5.2293867E-1,-1.3412387E0,1.6027792E0,-2.4693592E0,1.7169694E0,-6.732937E-2,-1.1040373E-2,5.112156E-2,-1.1701068E-2,4.017174E-1,-8.452969E-1,-6.6198164E-1,-4.2008543E-1,-1.175381E0,-9.8329353E-1,-9.906824E-1,2.804306E-1,5.368389E-2,1.952259E-2,-4.8171517E-2,3.2555632E-2,-1.086631E-2,-6.9765255E-2,-3.3546608E-2,5.5687387E-2,6.5328493E-3,-5.653959E-2,6.393185E-2,2.1734722E-2,1.1599805E-2,-1.7787937E-2,2.7011836E-2,-9.78281E-3,4.7050223E-2,-2.467375E-2,1.6895289E-2,-5.4867752E-2,-6.0529565E-3,2.6919836E-2,-1.7551264E-2,-2.241324E-3],"split_indices":[18,11,12,19,11,17,11,7,19,18,13,0,17,4,20,13,19,13,8,0,0,0,0,4,18,1,18,18,17,19,11,0,0,0,0,0,0,0,0,0,0,0,0,0,0,0,0,0,0,0,0,0,0,0,0],"split_type":[0,0,0,0,0,0,0,0,0,0,0,0,0,0,0,0,0,0,0,0,0,0,0,0,0,0,0,0,0,0,0,0,0,0,0,0,0,0,0,0,0,0,0,0,0,0,0,0,0,0,0,0,0,0,0],"sum_hessian":[7.166708E2,6.6746414E1,6.499244E2,6.003493E1,6.711483E0,2.2391E2,4.2601437E2,5.3584938E1,6.449992E0,3.735979E0,2.975504E0,7.731568E1,1.4659433E2,2.8694025E1,3.9732034E2,4.9599953E1,3.9849854E0,3.233284E0,3.2167084E0,2.4872873E0,1.2486918E0,1.2373012E0,1.7382026E0,3.351148E1,4.3804207E1,7.922695E1,6.736738E1,1.1967123E1,1.6726902E1,9.7196335E1,3.0012402E2,1.08717985E1,3.8728157E1,1.9936907E0,1.9912946E0,1.2422359E0,1.991048E0,1.7333585E0,1.48335E0,3.0269398E1,3.2420807E0,6.6099963E0,3.719421E1,2.4751688E1,5.447526E1,3.906594E1,2.8301437E1,3.741175E0,8.225947E0,1.9989659E0,1.4727936E1,5.9341114E1,3.7855217E1,9.839418E1,2.0172984E2],"tree_param":{"num_deleted":"0","num_feature":"21","num_nodes":"55","size_leaf_vector":"1"}},{"base_weights":[1.4836125E-3,2.812762E-1,-2.757748E-2,3.6816835E-1,-4.4295213E-1,1.1764158E-1,-1.0394375E-1,4.779461E-1,-4.8320782E-1,-1.0611087E0,4.0399933E-1,2.9235494E-1,1.0581534E-4,-5.2358216E-1,-7.24186E-2,1.0019509E0,3.8476086E-1,-1.0640548E0,2.1540089E-1,-1.0534733E-2,-6.530114E-2,4.984776E-2,-1.13265E-2,-1.8108182E-2,5.2560675E-1,-2.2217774E-1,2.216631E-1,-4.961286E-3,-8.736587E-1,-6.0506653E-2,-6.1650246E-2,-5.785826E-3,6.454127E-2,-1.5455355E-2,2.595444E-2,-1.0565815E-2,-6.735959E-2,-3.242123E-2,5.4191947E-2,6.2694736E-3,-5.862949E-2,6.264246E-2,1.9371314E-2,1.3086739E-2,-2.181027E-2,2.5763987E-2,-9.304698E-3,4.5222476E-2,-2.3575401E-2,1.633237E-2,-5.2358717E-2,-4.8526153E-3,2.0068547E-2],"categories":[],"categories_nodes":[],"categories_segments":[],"categories_sizes":[],"default_left":[0,0,0,0,0,0,0,0,0,0,0,0,0,0,0,0,0,0,0,0,0,0,0,0,0,0,0,0,0,0,0,0,0,0,0,0,0,0,0,0,0,0,0,0,0,0,0,0,0,0,0,0,0],"id":9,"left_children":[1,3,5,7,9,11,13,15,17,19,21,23,25,27,29,31,33,35,37,-1,-1,-1,-1,39,41,43,45,47,49,51,-1,-1,-1,-1,-1,-1,-1,-1,-1,-1,-1,-1,-1,-1,-1,-1,-1,-1,-1,-1,-1,-1,-1],"loss_changes":[5.839679E0,4.415666E0,7.227961E0,5.921256E0,4.4564137E0,4.6144147E0,5.6102905E0,2.2724028E0,3.252721E0,7.085266E-1,1.710176E0,6.5539727E0,6.7144256E0,5.38297E0,5.4315314E0,2.6015267E0,4.619192E0,7.382517E-1,3.8642468E0,0E0,0E0,0E0,0E0,6.729973E0,4.7036104E0,7.1629295E0,8.270672E0,5.9266677E0,4.0303926E0,6.7111926E0,0E0,0E0,0E0,0E0,0E0,0E0,0E0,0E0,0E0,0E0,0E0,0E0,0E0,0E0,0E0,0E0,0E0,0E0,0E0,0E0,0E0,0E0,0E0],"parents":[2147483647,0,0,1,1,2,2,3,3,4,4,5,5,6,6,7,7,8,8,9,9,10,10,11,11,12,12,13,13,14,14,15,15,16,16,17,17,18,18,23,23,24,24,25,25,26,26,27,27,28,28,29,29],"right_children":[2,4,6,8,10,12,14,16,18,20,22,24,26,28,30,32,34,36,38,-1,-1,-1,-1,40,42,44,46,48,50,52,-1,-1,-1,-1,-1,-1,-1,-1,-1,-1,-1,-1,-1,-1,-1,-1,-1,-1,-1,-1,-1,-1,-1],"split_conditions":[-1.398896E0,-3.77027E-2,-2.951913E-1,1.87485E0,1.8917985E-1,-3.685178E-1,-2.5142348E-1,-1.4848326E0,2.0677369E0,3.070196E-1,-2.4693592E0,-5.9183455E-1,2.865466E-1,-3.5330284E-1,2.0811746E0,-1.1871971E0,-8.089793E-1,-2.4693592E0,1.7169694E0,-1.0534733E-2,-6.530114E-2,4.984776E-2,-1.13265E-2,-6.0012496E-1,-8.2603514E-1,-6.6198164E-1,-4.2008543E-1,-1.175381E0,-9.8329353E-1,1.6431236E0,-6.1650246E-2,-5.785826E-3,6.454127E-2,-1.5455355E-2,2.595444E-2,-1.0565815E-2,-6.735959E-2,-3.242123E-2,5.4191947E-2,6.2694736E-3,-5.862949E-2,6.264246E-2,1.9371314E-2,1.3086739E-2,-2.181027E-2,2.5763987E-2,-9.304698E-3,4.5222476E-2,-2.3575401E-2,1.633237E-2,-5.2358717E-2,-4.8526153E-3,2.0068547E-2],"split_indices":[18,11,12,19,11,17,11,20,19,12,13,0,17,4,9,8,19,13,8,0,0,0,0,0,18,1,18,18,17,20,0,0,0,0,0,0,0,0,0,0,0,0,0,0,0,0,0,0,0,0,0,0,0],"split_type":[0,0,0,0,0,0,0,0,0,0,0,0,0,0,0,0,0,0,0,0,0,0,0,0,0,0,0,0,0,0,0,0,0,0,0,0,0,0,0,0,0,0,0,0,0,0,0,0,0,0,0,0,0],"sum_hessian":[7.162384E2,6.657669E1,6.4966174E2,5.9883564E1,6.693127E0,2.2371051E2,4.2595123E2,5.3432514E1,6.45105E0,3.7229996E0,2.9701278E0,8.937295E1,1.3433755E2,2.8672792E1,3.972784E2,6.5949802E0,4.6837532E1,3.2367773E0,3.2142725E0,1.2484144E0,2.474585E0,1.2311771E0,1.7389507E0,3.8736374E1,5.0636574E1,6.705747E1,6.728009E1,1.1963556E1,1.6709236E1,3.9428375E2,2.994688E0,1.4775807E0,5.1173997E0,7.385705E0,3.9451828E1,1.2421296E0,1.9946477E0,1.7384248E0,1.4758476E0,3.524673E1,3.489645E0,6.7970424E0,4.383953E1,2.0495234E1,4.6562237E1,3.896127E1,2.8318819E1,3.738237E0,8.22532E0,1.9989362E0,1.47102995E1,3.661058E2,2.8177921E1],"tree_param":{"num_deleted":"0","num_feature":"21","num_nodes":"53","size_leaf_vector":"1"}},{"base_weights":[1.3545494E-3,5.076786E-1,-1.362486E-2,1.0940461E0,1.0339388E-1,-8.90716E-1,-1.5314003E-3,1.1081777E-2,1.3298129E0,-3.4182063E-1,6.842227E-1,-1.1467642E0,-1.9113785E-1,1.7048532E-1,-5.195826E-2,2.1667236E-2,7.258937E-2,-6.386238E-2,1.644151E-1,6.175221E-2,-9.083738E-3,-1.6656664E-3,-7.2899394E-2,-3.4440372E-2,1.6740771E-2,8.263193E-2,6.3257086E-1,-4.3311406E-2,-5.9417136E-2,-4.1014884E-2,3.25708E-2,8.900124E-3,-1.3300613E-2,-9.985975E-3,4.911908E-2,4.5856874E-2,-2.6563823E-3],"categories":[],"categories_nodes":[],"categories_segments":[],"categories_sizes":[],"default_left":[0,0,0,0,0,0,0,0,0,0,0,0,0,0,0,0,0,0,0,0,0,0,0,0,0,0,0,0,0,0,0,0,0,0,0,0,0],"id":10,"left_children":[1,3,5,7,9,11,13,-1,15,17,19,21,23,25,27,-1,-1,-1,29,-1,-1,-1,-1,-1,-1,31,33,35,-1,-1,-1,-1,-1,-1,-1,-1,-1],"loss_changes":[5.4431925E0,4.7755456E0,7.3933015E0,1.4148216E0,3.6759155E0,1.4789004E0,5.982522E0,0E0,6.448269E-2,4.0939336E0,3.1379993E0,2.2870064E0,1.2095797E0,6.2949033E0,5.18896E0,0E0,0E0,0E0,3.5113032E0,0E0,0E0,0E0,0E0,0E0,0E0,4.453813E0,7.4244156E0,5.0486293E0,0E0,0E0,0E0,0E0,0E0,0E0,0E0,0E0,0E0],"parents":[2147483647,0,0,1,1,2,2,3,3,4,4,5,5,6,6,8,8,9,9,10,10,11,11,12,12,13,13,14,14,18,18,25,25,26,26,27,27],"right_children":[2,4,6,8,10,12,14,-1,16,18,20,22,24,26,28,-1,-1,-1,30,-1,-1,-1,-1,-1,-1,32,34,36,-1,-1,-1,-1,-1,-1,-1,-1,-1],"split_conditions":[-7.492399E-1,-5.357886E-1,-7.142027E-1,-8.8416433E-1,5.880228E-1,5.7978415E-1,-7.829933E-1,1.1081777E-2,-3.3190557E-1,-7.460924E-1,-7.988474E-1,-6.9477826E-1,-5.837509E-1,7.586776E-1,2.0811746E0,2.1667236E-2,7.258937E-2,-6.386238E-2,-9.082841E-1,6.175221E-2,-9.083738E-3,-1.6656664E-3,-7.2899394E-2,-3.4440372E-2,1.6740771E-2,1.5182122E0,-1.8277398E0,-1.6745721E0,-5.9417136E-2,-4.1014884E-2,3.25708E-2,8.900124E-3,-1.3300613E-2,-9.985975E-3,4.911908E-2,4.5856874E-2,-2.6563823E-3],"split_indices":[4,20,4,18,18,18,10,0,12,19,4,13,7,17,9,0,0,0,4,0,0,0,0,0,0,14,13,20,0,0,0,0,0,0,0,0,0],"split_type":[0,0,0,0,0,0,0,0,0,0,0,0,0,0,0,0,0,0,0,0,0,0,0,0,0,0,0,0,0,0,0,0,0,0,0,0,0],"sum_hessian":[7.157673E2,1.9622105E1,6.9614514E2,7.311503E0,1.2310601E1,8.479882E0,6.876653E2,1.9682882E0,5.343215E0,7.201802E0,5.1088E0,5.7398524E0,2.74003E0,1.5535059E2,5.323147E2,1.1851966E0,4.158018E0,1.9940842E0,5.2077174E0,2.8619294E0,2.2468705E0,1.4957207E0,4.2441316E0,1.248774E0,1.491256E0,1.3152367E2,2.3826933E1,5.2932513E2,2.9895692E0,1.4968038E0,3.7109137E0,1.0365783E2,2.7865833E1,7.1779046E0,1.6649029E1,4.420093E0,5.24905E2],"tree_param":{"num_deleted":"0","num_feature":"21","num_nodes":"37","size_leaf_vector":"1"}},{"base_weights":[1.3128226E-3,2.624541E-1,-2.573059E-2,9.5659554E-1,1.7223838E-1,1.09092936E-1,-9.651789E-2,-6.021134E-3,6.1963327E-2,2.5346494E-1,-4.2357644E-1,2.7886945E-1,-5.0448035E-3,-4.987235E-1,-6.6358194E-2,3.591465E-1,-4.5737642E-1,-9.5668536E-1,4.9870718E-1,-1.9414365E-2,5.034484E-1,-2.1101448E-1,2.0092106E-1,1.7655091E-1,-7.663035E-1,1.3665083E-1,-1.3231061E-1,-1.52829215E-2,2.4429483E-2,-5.112336E-2,1.0955772E-2,-6.2441286E-2,-1.606742E-2,3.1053035E-2,7.617973E-3,5.933221E-3,-5.6327082E-2,6.040097E-2,1.8534372E-2,1.2365522E-2,-2.0666046E-2,2.3801854E-2,-8.94347E-3,-3.15476E-2,3.0783752E-2,2.8410504E-4,-5.506922E-2,-5.507845E-3,2.5849685E-2,-1.3060899E-2,6.26936E-4],"categories":[],"categories_nodes":[],"categories_segments":[],"categories_sizes":[],"default_left":[0,0,0,0,0,0,0,0,0,0,0,0,0,0,0,0,0,0,0,0,0,0,0,0,0,0,0,0,0,0,0,0,0,0,0,0,0,0,0,0,0,0,0,0,0,0,0,0,0,0,0],"id":11,"left_children":[1,3,5,7,9,11,13,-1,-1,15,17,19,21,23,25,27,29,31,33,35,37,39,41,43,45,47,49,-1,-1,-1,-1,-1,-1,-1,-1,-1,-1,-1,-1,-1,-1,-1,-1,-1,-1,-1,-1,-1,-1,-1,-1],"loss_changes":[5.066698E0,4.051288E0,6.21555E0,2.4398642E0,3.04988E0,4.347993E0,5.144847E0,0E0,0E0,4.2308187E0,4.2476945E0,6.0515933E0,5.7743034E0,5.4876814E0,5.3500185E0,4.2529316E0,3.0705256E0,5.642972E-1,5.2271485E-2,6.202963E0,4.3685684E0,6.411414E0,7.19753E0,3.6576037E0,5.5426235E0,9.269847E0,5.625292E0,0E0,0E0,0E0,0E0,0E0,0E0,0E0,0E0,0E0,0E0,0E0,0E0,0E0,0E0,0E0,0E0,0E0,0E0,0E0,0E0,0E0,0E0,0E0,0E0],"parents":[2147483647,0,0,1,1,2,2,3,3,4,4,5,5,6,6,9,9,10,10,11,11,12,12,13,13,14,14,15,15,16,16,17,17,18,18,19,19,20,20,21,21,22,22,23,23,24,24,25,25,26,26],"right_children":[2,4,6,8,10,12,14,-1,-1,16,18,20,22,24,26,28,30,32,34,36,38,40,42,44,46,48,50,-1,-1,-1,-1,-1,-1,-1,-1,-1,-1,-1,-1,-1,-1,-1,-1,-1,-1,-1,-1,-1,-1,-1,-1],"split_conditions":[-1.398896E0,-1.4848326E0,-2.951913E-1,-1.1871971E0,-3.77027E-2,-3.685178E-1,-2.5142348E-1,-6.021134E-3,6.1963327E-2,1.87485E0,-5.448423E-1,-5.9183455E-1,2.865466E-1,-4.507465E-1,-5.2293867E-1,-8.089793E-1,2.0677369E0,7.00471E-2,-9.848329E-1,4.017174E-1,-8.2603514E-1,-6.6198164E-1,-4.2008543E-1,-6.4159274E-1,-7.846639E-1,-9.906824E-1,2.0332049E-1,-1.52829215E-2,2.4429483E-2,-5.112336E-2,1.0955772E-2,-6.2441286E-2,-1.606742E-2,3.1053035E-2,7.617973E-3,5.933221E-3,-5.6327082E-2,6.040097E-2,1.8534372E-2,1.2365522E-2,-2.0666046E-2,2.3801854E-2,-8.94347E-3,-3.15476E-2,3.0783752E-2,2.8410504E-4,-5.506922E-2,-5.507845E-3,2.5849685E-2,-1.3060899E-2,6.26936E-4],"split_indices":[18,20,12,8,11,17,11,0,0,19,17,0,17,11,20,19,19,11,10,4,18,1,18,11,17,19,19,0,0,0,0,0,0,0,0,0,0,0,0,0,0,0,0,0,0,0,0,0,0,0,0],"split_type":[0,0,0,0,0,0,0,0,0,0,0,0,0,0,0,0,0,0,0,0,0,0,0,0,0,0,0,0,0,0,0,0,0,0,0,0,0,0,0,0,0,0,0,0,0,0,0,0,0,0,0],"sum_hessian":[7.154878E2,6.6324905E1,6.491629E2,6.524028E0,5.9800877E1,2.2330626E2,4.2585666E2,1.4756322E0,5.0483956E0,5.3132053E1,6.668823E0,8.9192215E1,1.3411406E2,2.8621964E1,3.9723468E2,4.668596E1,6.4460945E0,4.2024016E0,2.466421E0,3.8702045E1,5.049017E1,6.704415E1,6.70699E1,8.219396E0,2.0402567E1,9.714362E1,3.0009106E2,7.3868155E0,3.9299145E1,3.2335792E0,3.2125156E0,2.2172537E0,1.985148E0,1.2364516E0,1.2299691E0,3.5204254E1,3.4977894E0,6.7211876E0,4.3768982E1,2.046294E1,4.658121E1,3.8747917E1,2.8321985E1,2.7414033E0,5.4779925E0,6.4728813E0,1.3929686E1,5.934471E1,3.7798912E1,1.5835822E2,1.4173285E2],"tree_param":{"num_deleted":"0","num_feature":"21","num_nodes":"51","size_leaf_vector":"1"}},{"base_weights":[1.2201259E-3,4.9147734E-1,-1.32217435E-2,1.0561233E0,1.02715984E-1,-8.530355E-1,-1.6351313E-3,1.1049458E-2,1.2820597E0,-3.2917935E-1,6.676198E-1,-1.0962939E0,-1.8622588E-1,-3.582766E-2,2.092009E-1,2.0900557E-2,6.995714E-2,-6.1624695E-2,1.5910785E-1,6.0283888E-2,-8.612895E-3,-1.4383208E-3,-6.976176E-2,1.6285334E-2,-3.3477377E-2,-2.7385293E-2,-6.808955E-2,3.1690383E-1,-7.526276E-1,-3.955942E-2,3.1516295E-2,2.8664418E-4,-1.4780238E-2,3.2811176E-2,7.363032E-3,-5.3424068E-2,3.0471995E-3],"categories":[],"categories_nodes":[],"categories_segments":[],"categories_sizes":[],"default_left":[0,0,0,0,0,0,0,0,0,0,0,0,0,0,0,0,0,0,0,0,0,0,0,0,0,0,0,0,0,0,0,0,0,0,0,0,0],"id":12,"left_children":[1,3,5,7,9,11,13,-1,15,17,19,21,23,25,27,-1,-1,-1,29,-1,-1,-1,-1,-1,-1,31,-1,33,35,-1,-1,-1,-1,-1,-1,-1,-1],"loss_changes":[5.075064E0,4.3939085E0,6.774652E0,1.274435E0,3.4537323E0,1.3327265E0,4.966507E0,0E0,5.143261E-2,3.8048382E0,2.9522865E0,2.1100245E0,1.1427698E0,6.598135E0,1.0197606E1,0E0,0E0,0E0,3.273492E0,0E0,0E0,0E0,0E0,0E0,0E0,5.24283E0,0E0,4.920602E0,2.6290288E0,0E0,0E0,0E0,0E0,0E0,0E0,0E0,0E0],"parents":[2147483647,0,0,1,1,2,2,3,3,4,4,5,5,6,6,8,8,9,9,10,10,11,11,12,12,13,13,14,14,18,18,25,25,27,27,28,28],"right_children":[2,4,6,8,10,12,14,-1,16,18,20,22,24,26,28,-1,-1,-1,30,-1,-1,-1,-1,-1,-1,32,-1,34,36,-1,-1,-1,-1,-1,-1,-1,-1],"split_conditions":[-7.492399E-1,-5.357886E-1,-7.142027E-1,-8.8416433E-1,5.880228E-1,5.7978415E-1,5.7452726E-1,1.1049458E-2,-3.3190557E-1,-7.460924E-1,-7.988474E-1,-6.9477826E-1,1.8917985E-1,2.0811746E0,1.85043E0,2.0900557E-2,6.995714E-2,-6.1624695E-2,-9.082841E-1,6.0283888E-2,-8.612895E-3,-1.4383208E-3,-6.976176E-2,1.6285334E-2,-3.3477377E-2,1.190874E0,-6.808955E-2,8.485456E-1,2.112254E0,-3.955942E-2,3.1516295E-2,2.8664418E-4,-1.4780238E-2,3.2811176E-2,7.363032E-3,-5.3424068E-2,3.0471995E-3],"split_indices":[4,20,4,18,18,18,4,0,12,19,4,13,11,9,10,0,0,0,4,0,0,0,0,0,0,18,0,4,4,0,0,0,0,0,0,0,0],"split_type":[0,0,0,0,0,0,0,0,0,0,0,0,0,0,0,0,0,0,0,0,0,0,0,0,0,0,0,0,0,0,0,0,0,0,0,0,0],"sum_hessian":[7.1487585E2,1.951085E1,6.95365E2,7.2557693E0,1.2255081E1,8.474833E0,6.8689014E2,1.9661918E0,5.2895775E0,7.181654E0,5.073427E0,5.7376103E0,2.7372222E0,5.9175226E2,9.51379E1,1.1766156E0,4.112962E0,1.9851247E0,5.1965294E0,2.8268797E0,2.2465475E0,1.4950334E0,4.242577E0,1.487634E0,1.2495884E0,5.8902264E2,2.7296352E0,8.616041E1,8.9774885E0,1.4975071E0,3.699022E0,5.2515784E2,6.3864803E1,2.7762236E1,5.8398174E1,6.241156E0,2.736333E0],"tree_param":{"num_deleted":"0","num_feature":"21","num_nodes":"37","size_leaf_vector":"1"}},{"base_weights":[1.0278992E-3,4.7389194E-1,-1.2822145E-2,1.022946E0,9.6754186E-2,-8.209066E-1,-1.6874608E-3,2.5830984E-3,1.1830952E0,-3.2211605E-1,6.473E-1,-1.0538983E0,-1.8160236E-1,1.357162E-1,-5.1843904E-2,1.3703795E-2,6.8727486E-2,-5.9814233E-2,1.5011758E-1,5.8702964E-2,-8.31434E-3,-1.3951993E-3,-6.709024E-2,-3.285524E-2,1.606461E-2,6.9008976E-1,5.91892E-2,-1.15519345E-1,9.943239E-2,-3.839002E-2,3.0335415E-2,-1.749132E-2,3.8384713E-2,2.9117053E-2,2.453484E-4,-3.5616548E-3,-2.471794E-2,4.6817467E-2,3.8736832E-4],"categories":[],"categories_nodes":[],"categories_segments":[],"categories_sizes":[],"default_left":[0,0,0,0,0,0,0,0,0,0,0,0,0,0,0,0,0,0,0,0,0,0,0,0,0,0,0,0,0,0,0,0,0,0,0,0,0,0,0],"id":13,"left_children":[1,3,5,7,9,11,13,-1,15,17,19,21,23,25,27,-1,-1,-1,29,-1,-1,-1,-1,-1,-1,31,33,35,37,-1,-1,-1,-1,-1,-1,-1,-1,-1,-1],"loss_changes":[4.693047E0,4.1234193E0,6.263448E0,1.2141867E0,3.2508044E0,1.2179193E0,4.7471614E0,0E0,8.402195E-1,3.5481153E0,2.7805815E0,1.9493837E0,1.1043502E0,7.773999E0,4.8720727E0,0E0,0E0,0E0,3.058659E0,0E0,0E0,0E0,0E0,0E0,0E0,2.0641823E0,4.624737E0,5.930537E0,1.1503829E1,0E0,0E0,0E0,0E0,0E0,0E0,0E0,0E0,0E0,0E0],"parents":[2147483647,0,0,1,1,2,2,3,3,4,4,5,5,6,6,8,8,9,9,10,10,11,11,12,12,13,13,14,14,18,18,25,25,26,26,27,27,28,28],"right_children":[2,4,6,8,10,12,14,-1,16,18,20,22,24,26,28,-1,-1,-1,30,-1,-1,-1,-1,-1,-1,32,34,36,38,-1,-1,-1,-1,-1,-1,-1,-1,-1,-1],"split_conditions":[-7.492399E-1,-5.357886E-1,-7.142027E-1,-4.360889E-1,5.880228E-1,5.7978415E-1,-4.300098E-1,2.5830984E-3,-1.1413964E0,-7.460924E-1,-7.988474E-1,-6.9477826E-1,-5.837509E-1,-6.453709E-1,4.5670158E-1,1.3703795E-2,6.8727486E-2,-5.9814233E-2,-9.082841E-1,5.8702964E-2,-8.31434E-3,-1.3951993E-3,-6.709024E-2,-3.285524E-2,1.606461E-2,-1.1977189E0,-9.167213E-1,1.3586917E0,2.1265897E-1,-3.839002E-2,3.0335415E-2,-1.749132E-2,3.8384713E-2,2.9117053E-2,2.453484E-4,-3.5616548E-3,-2.471794E-2,4.6817467E-2,3.8736832E-4],"split_indices":[4,20,4,12,18,18,11,0,18,19,4,13,7,7,13,0,0,0,4,0,0,0,0,0,0,19,17,2,10,0,0,0,0,0,0,0,0,0,0],"split_type":[0,0,0,0,0,0,0,0,0,0,0,0,0,0,0,0,0,0,0,0,0,0,0,0,0,0,0,0,0,0,0,0,0,0,0,0,0,0,0],"sum_hessian":[7.146568E2,1.9391233E1,6.9526556E2,7.1986794E0,1.2192554E1,8.461461E0,6.868041E2,1.2061464E0,5.9925327E0,7.15997E0,5.0325847E0,5.7260995E0,2.7353613E0,1.8320576E2,5.0359833E2,1.465575E0,4.526958E0,1.9735019E0,5.1864676E0,2.7858267E0,2.246758E0,1.4950839E0,4.2310157E0,1.2483565E0,1.4870049E0,2.124998E1,1.6195578E2,3.5458307E2,1.4901526E2,1.4964498E0,3.690018E0,1.2320774E0,2.0017902E1,1.4310312E1,1.4764548E2,3.185345E2,3.6048588E1,1.3803334E1,1.3521193E2],"tree_param":{"num_deleted":"0","num_feature":"21","num_nodes":"39","size_leaf_vector":"1"}},{"base_weights":[1.0599846E-3,2.458408E-1,-2.4230931E-2,6.600505E-1,1.0656122E-1,9.7421356E-2,-8.797582E-2,8.201859E-1,-3.727096E-2,-4.996437E-2,1.65417E-1,3.849488E-2,4.1878033E-1,-3.5355756E-1,-4.630985E-2,9.7549987E-1,-8.139225E-3,5.0465625E-2,9.5630586E-2,8.736226E-2,-4.100281E-1,9.2010957E-1,6.481719E-2,-5.1904124E-1,1.3208758E-2,3.801227E-1,-7.452584E-2,5.6618243E-2,-1.6317088E-2,4.958957E-2,1.19079E-3,6.0774707E-3,-2.947322E-2,-4.578144E-2,9.667959E-4,5.5765864E-2,-2.215033E-2,5.9259452E-2,-4.758111E-3,6.0168034E-3,-3.4148514E-2,1.862461E-2,-3.2855626E-2,3.648198E-2,-1.7016465E-2,-2.864541E-2,-1.498639E-3],"categories":[],"categories_nodes":[],"categories_segments":[],"categories_sizes":[],"default_left":[0,0,0,0,0,0,0,0,0,0,0,0,0,0,0,0,0,0,0,0,0,0,0,0,0,0,0,0,0,0,0,0,0,0,0,0,0,0,0,0,0,0,0,0,0,0,0],"id":14,"left_children":[1,3,5,7,9,11,13,15,-1,-1,17,19,21,23,25,27,-1,-1,29,31,33,35,37,39,41,43,45,-1,-1,-1,-1,-1,-1,-1,-1,-1,-1,-1,-1,-1,-1,-1,-1,-1,-1,-1,-1],"loss_changes":[4.4336104E0,3.7987313E0,5.042476E0,4.366318E0,3.5095038E0,4.2193813E0,4.7028637E0,2.518052E0,0E0,0E0,2.8270864E0,4.202706E0,6.072551E0,3.5078878E0,4.477722E0,3.1239395E0,0E0,0E0,2.998362E0,4.05748E0,4.110571E0,4.2793913E0,3.936128E0,4.250972E0,4.798907E0,6.0685287E0,7.702796E0,0E0,0E0,0E0,0E0,0E0,0E0,0E0,0E0,0E0,0E0,0E0,0E0,0E0,0E0,0E0,0E0,0E0,0E0,0E0,0E0],"parents":[2147483647,0,0,1,1,2,2,3,3,4,4,5,5,6,6,7,7,10,10,11,11,12,12,13,13,14,14,15,15,18,18,19,19,20,20,21,21,22,22,23,23,24,24,25,25,26,26],"right_children":[2,4,6,8,10,12,14,16,-1,-1,18,20,22,24,26,28,-1,-1,30,32,34,36,38,40,42,44,46,-1,-1,-1,-1,-1,-1,-1,-1,-1,-1,-1,-1,-1,-1,-1,-1,-1,-1,-1,-1],"split_conditions":[-1.398896E0,-6.5312976E-1,-2.951913E-1,-2.4991994E-1,-6.275167E-1,-2.6477188E-1,-1.3776247E-1,1.8329017E0,-3.727096E-2,-4.996437E-2,-1.1078807E0,1.6431236E0,3.1842837E-1,-3.0844915E-1,-1.1639358E0,-9.587252E-2,-8.139225E-3,5.0465625E-2,-6.546204E-1,9.7111976E-1,-2.947873E-1,2.4211186E-1,-9.8329353E-1,-4.507465E-1,-5.691841E-1,1.0346389E0,-9.906824E-1,5.6618243E-2,-1.6317088E-2,4.958957E-2,1.19079E-3,6.0774707E-3,-2.947322E-2,-4.578144E-2,9.667959E-4,5.5765864E-2,-2.215033E-2,5.9259452E-2,-4.758111E-3,6.0168034E-3,-3.4148514E-2,1.862461E-2,-3.2855626E-2,3.648198E-2,-1.7016465E-2,-2.864541E-2,-1.498639E-3],"split_indices":[18,9,12,13,9,11,11,4,0,0,17,20,10,10,19,11,0,0,3,18,4,17,17,11,1,18,19,0,0,0,0,0,0,0,0,0,0,0,0,0,0,0,0,0,0,0,0],"split_type":[0,0,0,0,0,0,0,0,0,0,0,0,0,0,0,0,0,0,0,0,0,0,0,0,0,0,0,0,0,0,0,0,0,0,0,0,0,0,0,0,0,0,0,0,0,0,0],"sum_hessian":[7.142069E2,6.60654E1,6.4814154E2,1.5683754E1,5.0381645E1,2.2266809E2,4.2547345E2,1.4453405E1,1.2303485E0,1.7384837E0,4.864316E1,1.8911122E2,3.3556877E1,5.6683495E1,3.6878995E2,1.2487864E1,1.9655418E0,2.6870465E0,4.5956116E1,1.7125761E2,1.78536E1,1.3225595E1,2.0331282E1,3.877374E1,1.7909756E1,2.2113493E1,3.4667645E2,1.1261139E1,1.2267246E0,2.459103E0,4.349701E1,1.6380412E2,7.4534883E0,7.678823E0,1.0174776E1,1.1727872E1,1.4977235E0,1.7396607E0,1.8591621E1,7.9667425E0,3.0806995E1,1.1949362E1,5.9603944E0,1.4881295E1,7.2321978E0,2.7474985E1,3.1920148E2],"tree_param":{"num_deleted":"0","num_feature":"21","num_nodes":"47","size_leaf_vector":"1"}},{"base_weights":[1.0355426E-3,6.012334E-1,-9.068693E-3,-2.8594006E-2,8.586189E-1,-4.151482E-2,1.96988E-1,1.0767032E0,3.8264012E-1,-3.371414E-2,-6.5334246E-2,2.996591E-1,-7.1739846E-1,9.870583E-3,6.4414494E-2,-2.721168E-2,5.330012E-2,-4.4983365E-3,-2.7536204E-1,6.246826E-1,1.3743974E-1,-1.0191171E0,5.953053E-2,-1.0614787E-3,3.217475E-2,-9.9577615E-3,-6.6251E-2,1.2665211E-2,4.8044156E-2,-2.6192306E-2,1.2121868E-2,-7.833404E-2,7.438403E-4,3.669012E-2,-3.5776388E-2],"categories":[],"categories_nodes":[],"categories_segments":[],"categories_sizes":[],"default_left":[0,0,0,0,0,0,0,0,0,0,0,0,0,0,0,0,0,0,0,0,0,0,0,0,0,0,0,0,0,0,0,0,0,0,0],"id":15,"left_children":[1,3,5,-1,7,9,11,13,15,17,-1,19,21,-1,-1,-1,-1,23,25,27,29,31,33,-1,-1,-1,-1,-1,-1,-1,-1,-1,-1,-1,-1],"loss_changes":[4.339971E0,4.068454E0,4.7141623E0,0E0,6.3808966E-1,5.9658136E0,9.221077E0,9.337926E-1,3.5760303E0,4.2788305E0,0E0,4.4987073E0,2.399835E0,0E0,0E0,0E0,0E0,5.8885045E0,4.9654717E0,3.3359222E0,4.243361E0,4.123971E0,2.477526E0,0E0,0E0,0E0,0E0,0E0,0E0,0E0,0E0,0E0,0E0,0E0,0E0],"parents":[2147483647,0,0,1,1,2,2,4,4,5,5,6,6,7,7,8,8,9,9,11,11,12,12,17,17,18,18,19,19,20,20,21,21,22,22],"right_children":[2,4,6,-1,8,10,12,14,16,18,-1,20,22,-1,-1,-1,-1,24,26,28,30,32,34,-1,-1,-1,-1,-1,-1,-1,-1,-1,-1,-1,-1],"split_conditions":[-7.988474E-1,-3.3719537E-1,5.7452726E-1,-2.8594006E-2,-5.312152E-1,2.0811746E0,1.85043E0,-9.082841E-1,8.599607E-2,1.190874E0,-6.5334246E-2,8.485456E-1,2.112254E0,9.870583E-3,6.4414494E-2,-2.721168E-2,5.330012E-2,1.9513302E0,1.6833344E0,1.3486537E-1,-8.1188136E-1,1.6017979E0,3.124902E0,-1.0614787E-3,3.217475E-2,-9.9577615E-3,-6.6251E-2,1.2665211E-2,4.8044156E-2,-2.6192306E-2,1.2121868E-2,-7.833404E-2,7.438403E-4,3.669012E-2,-3.5776388E-2],"split_indices":[4,13,4,0,8,9,10,4,10,18,0,4,4,0,0,0,0,1,11,18,17,18,4,0,0,0,0,0,0,0,0,0,0,0,0],"split_type":[0,0,0,0,0,0,0,0,0,0,0,0,0,0,0,0,0,0,0,0,0,0,0,0,0,0,0,0,0,0,0,0,0,0,0],"sum_hessian":[7.137316E2,1.08480425E1,7.0288354E2,1.732007E0,9.116035E0,6.079526E2,9.4930984E1,5.3861313E0,3.7299042E0,6.0524744E2,2.705137E0,8.59522E1,8.978785E0,1.4196192E0,3.9665122E0,1.6693233E0,2.060581E0,5.408732E2,6.437424E1,2.7667204E1,5.8285E1,6.242715E0,2.7360694E0,5.282022E2,1.2670984E1,6.112612E1,3.2481177E0,1.3978983E1,1.3688222E1,7.439724E0,5.0845276E1,3.744563E0,2.4981518E0,1.4916334E0,1.244436E0],"tree_param":{"num_deleted":"0","num_feature":"21","num_nodes":"35","size_leaf_vector":"1"}},{"base_weights":[8.9306803E-4,4.4356644E-1,-1.1918403E-2,9.724065E-1,8.335591E-2,-7.938629E-1,-1.1648491E-3,1.7821634E-3,1.1306317E0,-3.1383887E-1,6.114727E-1,-9.4367886E-1,4.5093682E-5,1.4453255E-1,-4.3653894E-2,1.311093E-2,6.579197E-2,-5.755165E-2,1.3794823E-1,5.6070115E-2,-7.9313265E-3,-1.4031839E-3,-1.1518168E0,6.382679E-2,5.7185376E-1,8.765319E-1,-5.2945152E-2,-3.689987E-2,2.878735E-2,-1.15482155E-2,-6.623732E-2,7.562579E-3,-1.2730529E-2,-1.0764374E-2,4.5426276E-2,7.2345543E-3,6.2343933E-2,-1.1521553E-2,-1.14365386E-4],"categories":[],"categories_nodes":[],"categories_segments":[],"categories_sizes":[],"default_left":[0,0,0,0,0,0,0,0,0,0,0,0,0,0,0,0,0,0,0,0,0,0,0,0,0,0,0,0,0,0,0,0,0,0,0,0,0,0,0],"id":16,"left_children":[1,3,5,7,9,11,13,-1,15,17,19,21,-1,23,25,-1,-1,-1,27,-1,-1,-1,29,31,33,35,37,-1,-1,-1,-1,-1,-1,-1,-1,-1,-1,-1,-1],"loss_changes":[4.0575113E0,3.7523258E0,5.8463993E0,1.1542759E0,2.9322553E0,1.12391E0,4.25896E0,0E0,7.586813E-1,3.2288969E0,2.5132163E0,1.4802675E0,0E0,5.320574E0,4.600178E0,0E0,0E0,0E0,2.7890885E0,0E0,0E0,0E0,7.198677E-1,3.70728E0,6.7018137E0,1.2780795E0,4.748936E0,0E0,0E0,0E0,0E0,0E0,0E0,0E0,0E0,0E0,0E0,0E0,0E0],"parents":[2147483647,0,0,1,1,2,2,3,3,4,4,5,5,6,6,8,8,9,9,10,10,11,11,13,13,14,14,18,18,22,22,23,23,24,24,25,25,26,26],"right_children":[2,4,6,8,10,12,14,-1,16,18,20,22,-1,24,26,-1,-1,-1,28,-1,-1,-1,30,32,34,36,38,-1,-1,-1,-1,-1,-1,-1,-1,-1,-1,-1,-1],"split_conditions":[-7.492399E-1,-5.357886E-1,-7.142027E-1,-4.360889E-1,5.880228E-1,8.1354964E-1,-7.829933E-1,1.7821634E-3,-1.1413964E0,-7.460924E-1,-7.988474E-1,-6.9477826E-1,4.5093682E-5,7.586776E-1,-1.6745721E0,1.311093E-2,6.579197E-2,-5.755165E-2,-9.082841E-1,5.6070115E-2,-7.9313265E-3,-1.4031839E-3,-4.4113392E-1,1.5182122E0,-1.8277398E0,-3.2661146E-1,-2.5674874E-1,-3.689987E-2,2.878735E-2,-1.15482155E-2,-6.623732E-2,7.562579E-3,-1.2730529E-2,-1.0764374E-2,4.5426276E-2,7.2345543E-3,6.2343933E-2,-1.1521553E-2,-1.14365386E-4],"split_indices":[4,20,4,12,18,18,10,0,18,19,4,13,0,17,20,0,0,0,4,0,0,0,12,14,13,11,18,0,0,0,0,0,0,0,0,0,0,0,0],"split_type":[0,0,0,0,0,0,0,0,0,0,0,0,0,0,0,0,0,0,0,0,0,0,0,0,0,0,0,0,0,0,0,0,0,0,0,0,0,0,0],"sum_hessian":[7.1351465E2,1.9123398E1,6.9439124E2,7.0595E0,1.2063897E1,8.432044E0,6.859592E2,1.1971444E0,5.862356E0,7.1169806E0,4.946916E0,6.9370217E0,1.4950219E0,1.5433476E2,5.3162445E2,1.4551533E0,4.4072027E0,1.9520177E0,5.164963E0,2.7017465E0,2.2451699E0,1.4950429E0,5.4419785E0,1.3078374E2,2.3551022E1,4.381194E0,5.272433E2,1.492692E0,3.6722708E0,1.229653E0,4.2123256E0,1.0302418E2,2.775956E1,7.163422E0,1.63876E1,1.9394147E0,2.4417791E0,1.16282974E2,4.109603E2],"tree_param":{"num_deleted":"0","num_feature":"21","num_nodes":"39","size_leaf_vector":"1"}},{"base_weights":[9.58642E-4,1.6312232E-2,-3.569307E-1,-2.0879442E-2,2.7658644E-1,4.6804163E-1,-5.763493E-1,-1.3959669E-2,-6.110049E-2,5.9575E-1,1.1502656E-1,-3.4272898E-2,1.0993853E0,-1.2932992E-1,-8.909342E-1,-2.6987756E-2,5.458389E-1,9.065692E-1,2.0958935E-1,-4.978646E-1,2.1468955E-1,9.729319E-3,6.83197E-2,-1.0346413E0,3.8561237E-1,-1.365049E0,-1.5188932E-1,7.8144344E-4,-1.5325396E-2,4.6569284E-2,-9.920097E-3,1.8099323E-2,7.140922E-2,-2.066637E-2,3.7047263E-2,-4.8570108E-2,-3.1459567E-3,4.5194436E-2,5.3085736E-3,-9.731483E-3,-6.600304E-2,3.9115887E-2,-3.769993E-3,-7.712133E-2,-1.0260573E-2,1.7340569E-2,-3.7891176E-2],"categories":[],"categories_nodes":[],"categories_segments":[],"categories_sizes":[],"default_left":[0,0,0,0,0,0,0,0,0,0,0,0,0,0,0,0,0,0,0,0,0,0,0,0,0,0,0,0,0,0,0,0,0,0,0,0,0,0,0,0,0,0,0,0,0,0,0],"id":17,"left_children":[1,3,5,7,9,11,13,15,-1,17,19,-1,21,23,25,27,29,31,33,35,37,-1,-1,39,41,43,45,-1,-1,-1,-1,-1,-1,-1,-1,-1,-1,-1,-1,-1,-1,-1,-1,-1,-1,-1,-1],"loss_changes":[3.9297636E0,6.6432657E0,5.5950127E0,4.9772525E0,4.355705E0,5.6566E0,3.215694E0,4.379346E0,0E0,3.242302E0,3.6621602E0,0E0,8.780737E-1,5.505366E0,4.6045303E0,6.982956E0,4.1038504E0,3.8982153E0,4.9577594E0,1.6776581E0,3.7005677E0,0E0,0E0,7.603545E-1,1.4691578E0,1.3788261E0,2.224609E0,0E0,0E0,0E0,0E0,0E0,0E0,0E0,0E0,0E0,0E0,0E0,0E0,0E0,0E0,0E0,0E0,0E0,0E0,0E0,0E0],"parents":[2147483647,0,0,1,1,2,2,3,3,4,4,5,5,6,6,7,7,9,9,10,10,12,12,13,13,14,14,15,15,16,16,17,17,18,18,19,19,20,20,23,23,24,24,25,25,26,26],"right_children":[2,4,6,8,10,12,14,16,-1,18,20,-1,22,24,26,28,30,32,34,36,38,-1,-1,40,42,44,46,-1,-1,-1,-1,-1,-1,-1,-1,-1,-1,-1,-1,-1,-1,-1,-1,-1,-1,-1,-1],"split_conditions":[1.8124646E0,5.7452726E-1,-2.4776022E-1,2.0811746E0,8.485456E-1,1.9347898E0,-3.4923366E-1,1.9513302E0,-6.110049E-2,-3.6158074E-2,-8.1188136E-1,-3.4272898E-2,-4.2346767E-1,2.9910228E-1,2.0781496E0,7.4670476E-1,2.0801206E0,-4.3956563E-1,8.849026E-2,-1.1227528E-1,-1.1404307E0,9.729319E-3,6.83197E-2,-1.104928E0,2.2507706E0,1.5262647E0,3.260021E0,7.8144344E-4,-1.5325396E-2,4.6569284E-2,-9.920097E-3,1.8099323E-2,7.140922E-2,-2.066637E-2,3.7047263E-2,-4.8570108E-2,-3.1459567E-3,4.5194436E-2,5.3085736E-3,-9.731483E-3,-6.600304E-2,3.9115887E-2,-3.769993E-3,-7.712133E-2,-1.0260573E-2,1.7340569E-2,-3.7891176E-2],"split_indices":[10,4,4,9,4,10,20,1,0,17,17,0,4,12,13,12,3,17,18,13,3,0,0,0,10,19,11,0,0,0,0,0,0,0,0,0,0,0,0,0,0,0,0,0,0,0,0],"split_type":[0,0,0,0,0,0,0,0,0,0,0,0,0,0,0,0,0,0,0,0,0,0,0,0,0,0,0,0,0,0,0,0,0,0,0,0,0,0,0,0,0,0,0,0,0,0,0],"sum_hessian":[7.1310785E2,6.8468884E2,2.8418993E1,5.9988806E2,8.480074E1,5.7325587E0,2.2686434E1,5.974577E2,2.430362E0,2.7596342E1,5.7204403E1,1.9974306E0,3.7351282E0,9.953627E0,1.2732807E1,5.8479956E2,1.2658141E1,1.4543049E1,1.3053293E1,7.4421854E0,4.976222E1,1.2450054E0,2.4901228E0,3.242973E0,6.710654E0,7.240689E0,5.4921184E0,5.0825354E2,7.654603E1,8.17283E0,4.485312E0,7.9436245E0,6.5994244E0,6.111184E0,6.9421086E0,2.9725246E0,4.4696608E0,5.772383E0,4.3989838E1,1.248994E0,1.9939791E0,3.2322853E0,3.4783685E0,5.9941244E0,1.2465645E0,3.2472134E0,2.2449052E0],"tree_param":{"num_deleted":"0","num_feature":"21","num_nodes":"47","size_leaf_vector":"1"}},{"base_weights":[8.6121995E-4,4.99579E-2,-4.5646704E-3,5.667204E-1,-1.4041806E-2,-3.5080608E-2,7.84961E-1,-4.320467E-2,1.7300707E-1,1.4268045E-1,9.751535E-1,-3.594286E-2,-6.1616477E-2,2.6878142E-1,-6.691151E-1,-3.8214017E-2,4.6083905E-2,4.887652E-3,5.5437107E-2,-4.833668E-2,-1.4066845E-3,-1.4061995E-2,1.7397579E-2,-4.7837835E-2,3.353993E-3],"categories":[],"categories_nodes":[],"categories_segments":[],"categories_sizes":[],"default_left":[0,0,0,0,0,0,0,0,0,0,0,0,0,0,0,0,0,0,0,0,0,0,0,0,0],"id":18,"left_children":[1,-1,3,5,7,-1,9,11,13,15,17,19,-1,21,23,-1,-1,-1,-1,-1,-1,-1,-1,-1,-1],"loss_changes":[3.871302E0,0E0,3.8574083E0,3.768991E0,3.8279214E0,0E0,1.1302781E0,5.194726E0,7.8150687E0,3.20942E0,8.1126595E-1,4.363484E0,0E0,3.8302603E0,2.1719513E0,0E0,0E0,0E0,0E0,0E0,0E0,0E0,0E0,0E0,0E0],"parents":[2147483647,0,0,2,2,3,3,4,4,6,6,7,7,8,8,9,9,10,10,11,11,13,13,14,14],"right_children":[2,-1,4,6,8,-1,10,12,14,16,18,20,-1,22,24,-1,-1,-1,-1,-1,-1,-1,-1,-1,-1],"split_conditions":[-1.2561177E0,4.99579E-2,-7.988474E-1,-6.9770795E-1,5.7452726E-1,-3.5080608E-2,-9.082841E-1,2.0811746E0,1.85043E0,3.4781814E-1,-1.2772825E0,-1.2459277E0,-6.1616477E-2,-1.1469989E0,2.112254E0,-3.8214017E-2,4.6083905E-2,4.887652E-3,5.5437107E-2,-4.833668E-2,-1.4066845E-3,-1.4061995E-2,1.7397579E-2,-4.7837835E-2,3.353993E-3],"split_indices":[3,0,4,11,4,0,4,9,10,13,17,7,0,12,4,0,0,0,0,0,0,0,0,0,0],"split_type":[0,0,0,0,0,0,0,0,0,0,0,0,0,0,0,0,0,0,0,0,0,0,0,0,0],"sum_hessian":[7.128622E2,2.8635197E0,7.0999866E2,1.0626569E1,6.9937213E2,1.2349046E0,9.391664E0,6.057054E2,9.366674E1,2.5455446E0,6.8461194E0,6.0305286E2,2.6525276E0,8.4713165E1,8.953578E0,1.1848991E0,1.3606457E0,1.1334494E0,5.71267E0,3.9957588E0,5.9905707E2,1.0338163E1,7.4375E1,6.22269E0,2.730888E0],"tree_param":{"num_deleted":"0","num_feature":"21","num_nodes":"25","size_leaf_vector":"1"}},{"base_weights":[7.250941E-4,4.8469033E-2,-4.5026876E-3,4.1573745E-1,-1.6564976E-2,9.3486935E-1,6.448046E-2,-7.632212E-1,-6.264135E-3,1.5392391E-3,1.0899608E0,-3.148956E-1,5.7665E-1,-9.8218024E-1,-1.6675153E-1,2.4799387E-1,-2.7572267E-2,1.2484275E-2,6.361876E-2,-5.639192E-2,6.3037956E-3,5.3584125E-2,-7.573211E-3,-1.2616854E-3,-6.267088E-2,1.6173434E-2,-3.1695515E-2,-6.498877E-3,2.306585E-2,1.2798523E-2,-2.2794611E-3],"categories":[],"categories_nodes":[],"categories_segments":[],"categories_sizes":[],"default_left":[0,0,0,0,0,0,0,0,0,0,0,0,0,0,0,0,0,0,0,0,0,0,0,0,0,0,0,0,0,0,0],"id":19,"left_children":[1,-1,3,5,7,9,11,13,15,-1,17,19,21,23,25,27,29,-1,-1,-1,-1,-1,-1,-1,-1,-1,-1,-1,-1,-1,-1],"loss_changes":[3.6180983E0,0E0,3.6099145E0,3.5631778E0,5.316886E0,1.080481E0,2.6931505E0,1.0648608E0,3.7099326E0,0E0,7.1734715E-1,3.036021E0,2.2721622E0,1.7014251E0,1.0593963E0,4.329516E0,3.238029E0,0E0,0E0,0E0,0E0,0E0,0E0,0E0,0E0,0E0,0E0,0E0,0E0,0E0,0E0],"parents":[2147483647,0,0,2,2,3,3,4,4,5,5,6,6,7,7,8,8,10,10,11,11,12,12,13,13,14,14,15,15,16,16],"right_children":[2,-1,4,6,8,10,12,14,16,-1,18,20,22,24,26,28,30,-1,-1,-1,-1,-1,-1,-1,-1,-1,-1,-1,-1,-1,-1],"split_conditions":[-1.2561177E0,4.8469033E-2,-7.492399E-1,-5.357886E-1,-7.142027E-1,-4.360889E-1,5.880228E-1,5.7978415E-1,-1.0958916E0,1.5392391E-3,-1.1413964E0,-7.460924E-1,-7.988474E-1,-6.9477826E-1,1.8917985E-1,-5.193685E-1,-1.6112341E0,1.2484275E-2,6.361876E-2,-5.639192E-2,6.3037956E-3,5.3584125E-2,-7.573211E-3,-1.2616854E-3,-6.267088E-2,1.6173434E-2,-3.1695515E-2,-6.498877E-3,2.306585E-2,1.2798523E-2,-2.2794611E-3],"split_indices":[3,0,4,20,4,12,18,18,17,0,18,19,4,13,11,8,10,0,0,0,0,0,0,0,0,0,0,0,0,0,0],"split_type":[0,0,0,0,0,0,0,0,0,0,0,0,0,0,0,0,0,0,0,0,0,0,0,0,0,0,0,0,0,0,0],"sum_hessian":[7.126238E2,2.8353384E0,7.0978845E2,1.8871044E1,6.909174E2,6.9451413E0,1.1925903E1,8.407492E0,6.825099E2,1.1924443E0,5.752697E0,7.0723906E0,4.853513E0,5.6768956E0,2.730596E0,5.195241E1,6.305575E2,1.4486058E0,4.3040915E0,1.9394114E0,5.132979E0,2.6083086E0,2.2452042E0,1.4950999E0,4.1817956E0,1.4824976E0,1.2480986E0,1.8883984E1,3.3068428E1,3.688415E1,5.9367334E2],"tree_param":{"num_deleted":"0","num_feature":"21","num_nodes":"31","size_leaf_vector":"1"}},{"base_weights":[7.9237315E-4,1.8496733E-2,-2.7343896E-1,-2.3860164E-2,1.5402143E-1,-9.7816885E-2,-6.357076E-1,-5.238116E-4,-7.064643E-1,3.361475E-2,4.7521964E-1,-3.33629E-1,3.514506E-1,-9.054052E-1,3.27125E-2,4.4218484E-2,-3.1253928E-1,-1.3039548E0,-2.8392133E-1,3.8050744E-1,-5.3563412E-2,9.781604E-1,2.1486662E-1,-7.8228337E-1,1.906708E-1,1.0467792E0,-6.1501974E-1,-1.1244012E0,1.8734852E-2,5.460369E-4,3.461982E-2,-5.534915E-3,-3.4154344E-2,-1.4067255E-2,-7.420295E-2,-5.0133582E-2,3.3474073E-3,-3.3982347E-3,4.1634627E-2,-1.3847684E-2,6.296119E-3,6.725212E-2,3.2596195E-3,-5.231102E-3,3.0080242E-2,-1.7034867E-3,-6.360101E-2,5.2463867E-2,-2.262512E-3,8.463668E-3,6.603422E-2,-1.5529427E-3,-4.8388224E-2,-2.5360972E-2,-6.9556214E-2],"categories":[],"categories_nodes":[],"categories_segments":[],"categories_sizes":[],"default_left":[0,0,0,0,0,0,0,0,0,0,0,0,0,0,0,0,0,0,0,0,0,0,0,0,0,0,0,0,0,0,0,0,0,0,0,0,0,0,0,0,0,0,0,0,0,0,0,0,0,0,0,0,0,0,0],"id":20,"left_children":[1,3,5,7,9,11,13,15,17,19,21,23,25,27,-1,29,31,33,35,37,39,41,43,45,47,49,51,53,-1,-1,-1,-1,-1,-1,-1,-1,-1,-1,-1,-1,-1,-1,-1,-1,-1,-1,-1,-1,-1,-1,-1,-1,-1,-1,-1],"loss_changes":[3.4683914E0,3.8555853E0,2.6941743E0,8.157145E0,6.1686726E0,3.3337083E0,5.4502063E0,6.940545E0,3.9034758E0,3.5704176E0,5.489216E0,4.9532385E0,7.9938498E0,3.776475E0,0E0,9.377154E0,4.587711E0,8.226929E-1,2.8900967E0,4.8627276E0,3.8315022E0,4.7908325E0,3.7648964E0,4.0611587E0,2.1179984E0,1.3942733E0,1.0423846E0,1.017909E0,0E0,0E0,0E0,0E0,0E0,0E0,0E0,0E0,0E0,0E0,0E0,0E0,0E0,0E0,0E0,0E0,0E0,0E0,0E0,0E0,0E0,0E0,0E0,0E0,0E0,0E0,0E0],"parents":[2147483647,0,0,1,1,2,2,3,3,4,4,5,5,6,6,7,7,8,8,9,9,10,10,11,11,12,12,13,13,15,15,16,16,17,17,18,18,19,19,20,20,21,21,22,22,23,23,24,24,25,25,26,26,27,27],"right_children":[2,4,6,8,10,12,14,16,18,20,22,24,26,28,-1,30,32,34,36,38,40,42,44,46,48,50,52,54,-1,-1,-1,-1,-1,-1,-1,-1,-1,-1,-1,-1,-1,-1,-1,-1,-1,-1,-1,-1,-1,-1,-1,-1,-1,-1,-1],"split_conditions":[1.5314441E0,4.5670158E-1,1.0469252E0,4.0463915E-1,1.4339641E0,1.8194579E0,1.7053361E0,1.3586917E0,-3.254617E-1,5.4872966E-1,1.1212642E0,1.1871881E-1,1.6027792E0,3.037555E0,3.27125E-2,5.6295645E-1,-5.375916E-1,-9.152555E-1,4.7888555E-2,1.068653E-1,-4.697634E-1,1.8304249E0,2.556953E-1,1.6833344E0,-1.061725E-1,1.8474439E0,-1.9083983E-1,1.3397616E0,1.8734852E-2,5.460369E-4,3.461982E-2,-5.534915E-3,-3.4154344E-2,-1.4067255E-2,-7.420295E-2,-5.0133582E-2,3.3474073E-3,-3.3982347E-3,4.1634627E-2,-1.3847684E-2,6.296119E-3,6.725212E-2,3.2596195E-3,-5.231102E-3,3.0080242E-2,-1.7034867E-3,-6.360101E-2,5.2463867E-2,-2.262512E-3,8.463668E-3,6.603422E-2,-1.5529427E-3,-4.8388224E-2,-2.5360972E-2,-6.9556214E-2],"split_indices":[11,13,18,13,20,1,19,2,4,13,13,4,19,13,0,1,10,19,10,11,14,8,11,11,3,11,4,0,0,0,0,0,0,0,0,0,0,0,0,0,0,0,0,0,0,0,0,0,0,0,0,0,0,0,0],"split_type":[0,0,0,0,0,0,0,0,0,0,0,0,0,0,0,0,0,0,0,0,0,0,0,0,0,0,0,0,0,0,0,0,0,0,0,0,0,0,0,0,0,0,0,0,0,0,0,0,0,0,0,0,0,0,0],"sum_hessian":[7.1234076E2,6.70017E2,4.2323715E1,5.1110135E2,1.5891571E2,2.9360313E1,1.2963401E1,4.951735E2,1.5927849E1,1.1638969E2,4.252602E1,1.9422958E1,9.937354E0,1.0968315E1,1.995086E0,4.3382263E2,6.135088E1,5.7339177E0,1.0193932E1,2.2699774E1,9.368991E1,1.35648575E1,2.8961164E1,1.0201374E1,9.221584E0,5.731048E0,4.206306E0,9.469871E0,1.4984447E0,4.1359268E2,2.0229948E1,4.0557526E1,2.079335E1,1.2423159E0,4.491602E0,2.734558E0,7.4593735E0,1.1823276E1,1.0876497E1,4.1497974E1,5.2191936E1,9.338757E0,4.2261014E0,1.6258947E1,1.2702217E1,4.458818E0,5.742556E0,1.2445637E0,7.9770203E0,1.7482398E0,3.9828086E0,1.993749E0,2.2125573E0,3.73318E0,5.7366905E0],"tree_param":{"num_deleted":"0","num_feature":"21","num_nodes":"55","size_leaf_vector":"1"}},{"base_weights":[6.92542E-4,4.7041472E-2,-4.3445304E-3,-8.049275E-1,1.5944932E-3,-6.408342E-3,-6.3398026E-2,8.289917E-1,-5.97252E-3,6.110583E-2,-6.9594905E-3,-7.347771E-1,5.429192E-3,-1.4080606E-2,-6.03801E-2,1.0467116E-3,-1.7400028E-2],"categories":[],"categories_nodes":[],"categories_segments":[],"categories_sizes":[],"default_left":[0,0,0,0,0,0,0,0,0,0,0,0,0,0,0,0,0],"id":21,"left_children":[1,-1,3,5,7,-1,-1,9,11,-1,-1,13,15,-1,-1,-1,-1],"loss_changes":[3.3809195E0,0E0,3.3784304E0,1.4770913E0,4.425452E0,0E0,0E0,2.6082654E0,5.8260427E0,0E0,0E0,1.9739285E0,3.7930517E0,0E0,0E0,0E0,0E0],"parents":[2147483647,0,0,2,2,3,3,4,4,7,7,8,8,11,11,12,12],"right_children":[2,-1,4,6,8,-1,-1,10,12,-1,-1,14,16,-1,-1,-1,-1],"split_conditions":[-1.2561177E0,4.7041472E-2,-1.2459277E0,-1.2536379E0,-1.2303818E0,-6.408342E-3,-6.3398026E-2,-1.6053773E0,-1.2166727E0,6.110583E-2,-6.9594905E-3,-6.8372875E-2,1.8124646E0,-1.4080606E-2,-6.03801E-2,1.0467116E-3,-1.7400028E-2],"split_indices":[3,0,7,7,14,0,0,20,15,0,0,13,10,0,0,0,0],"split_type":[0,0,0,0,0,0,0,0,0,0,0,0,0,0,0,0,0],"sum_hessian":[7.12083E2,2.8047974E0,7.0927826E2,4.2322855E0,7.0504596E2,2.2380254E0,1.9942603E0,5.405821E0,6.9964014E2,3.6581633E0,1.7476577E0,9.799592E0,6.898405E2,5.8185606E0,3.9810314E0,6.617502E2,2.8090357E1],"tree_param":{"num_deleted":"0","num_feature":"21","num_nodes":"17","size_leaf_vector":"1"}},{"base_weights":[5.763605E-4,2.1255434E-1,-2.1221654E-2,2.9351783E-1,-4.095554E-1,9.4235346E-2,-7.582581E-2,5.132593E-2,2.0294021E-1,1.8368973E-1,-1.0048689E0,2.9094622E-1,-1.2625206E-2,-4.3807557E-1,-4.2296074E-2,-4.9912106E-2,4.410657E-1,4.5056414E-2,-4.3571204E-2,-1.7074732E-2,-5.8280285E-2,3.9765304E-1,-2.9480153E-1,3.9721522E-1,-1.0207213E-1,1.9296942E-2,-8.1016535E-1,-3.33769E-2,-4.8078157E-2,4.0495005E-2,-1.31152095E-2,3.1532668E-2,-4.826061E-3,-5.614355E-2,2.2350194E-2,-5.447157E-2,6.486612E-3,-3.8206335E-2,2.5860071E-2,4.1146345E-2,-7.4288757E-3,2.5826683E-2,-3.3599366E-2,6.364882E-3,-4.9642306E-2,-3.333312E-3,1.9551573E-2],"categories":[],"categories_nodes":[],"categories_segments":[],"categories_sizes":[],"default_left":[0,0,0,0,0,0,0,0,0,0,0,0,0,0,0,0,0,0,0,0,0,0,0,0,0,0,0,0,0,0,0,0,0,0,0,0,0,0,0,0,0,0,0,0,0,0,0],"id":22,"left_children":[1,3,5,7,9,11,13,-1,15,17,19,21,23,25,27,29,31,-1,-1,-1,-1,33,35,37,39,41,43,45,-1,-1,-1,-1,-1,-1,-1,-1,-1,-1,-1,-1,-1,-1,-1,-1,-1,-1,-1],"loss_changes":[3.2989924E0,3.4733021E0,4.0887084E0,3.7412906E0,3.0394561E0,4.382699E0,5.326883E0,0E0,3.2849379E0,4.4901514E0,4.8654556E-2,4.7032614E0,5.024245E0,6.342533E0,3.2796428E0,5.176258E0,2.9156814E0,0E0,0E0,0E0,0E0,5.1912518E0,4.1493406E0,3.817431E0,4.9569244E0,6.4153395E0,3.6410675E0,5.6924834E0,0E0,0E0,0E0,0E0,0E0,0E0,0E0,0E0,0E0,0E0,0E0,0E0,0E0,0E0,0E0,0E0,0E0,0E0,0E0],"parents":[2147483647,0,0,1,1,2,2,3,3,4,4,5,5,6,6,8,8,9,9,10,10,11,11,12,12,13,13,14,14,15,15,16,16,21,21,22,22,23,23,24,24,25,25,26,26,27,27],"right_children":[2,4,6,8,10,12,14,-1,16,18,20,22,24,26,28,30,32,-1,-1,-1,-1,34,36,38,40,42,44,46,-1,-1,-1,-1,-1,-1,-1,-1,-1,-1,-1,-1,-1,-1,-1,-1,-1,-1,-1],"split_conditions":[-1.398896E0,1.6397816E0,-3.2656214E-1,-1.4848326E0,-1.7980766E0,-4.230127E-1,-2.5142348E-1,5.132593E-2,-2.3572664E-1,-2.7909E-1,-1.9166498E-1,3.1842837E-1,-6.257155E-1,-3.5330284E-1,2.0811746E0,-4.389871E-1,1.61237E0,4.5056414E-2,-4.3571204E-2,-1.7074732E-2,-5.8280285E-2,-1.2178769E0,-5.607195E-1,-8.110992E-1,-7.933413E-1,-7.8391707E-1,-8.530824E-1,1.6431236E0,-4.8078157E-2,4.0495005E-2,-1.31152095E-2,3.1532668E-2,-4.826061E-3,-5.614355E-2,2.2350194E-2,-5.447157E-2,6.486612E-3,-3.8206335E-2,2.5860071E-2,4.1146345E-2,-7.4288757E-3,2.5826683E-2,-3.3599366E-2,6.364882E-3,-4.9642306E-2,-3.333312E-3,1.9551573E-2],"split_indices":[18,4,12,20,18,17,11,0,17,20,17,10,20,4,9,4,7,0,0,0,0,0,1,13,2,18,17,20,0,0,0,0,0,0,0,0,0,0,0,0,0,0,0,0,0,0,0],"split_type":[0,0,0,0,0,0,0,0,0,0,0,0,0,0,0,0,0,0,0,0,0,0,0,0,0,0,0,0,0,0,0,0,0,0,0,0,0,0,0,0,0,0,0,0,0,0,0],"sum_hessian":[7.1198334E2,6.557161E1,6.4641174E2,5.8487972E1,7.0836363E0,2.0732034E2,4.3909143E2,5.296108E0,5.3191864E1,3.894303E0,3.189333E0,7.237269E1,1.3494766E2,3.6176895E1,4.0291452E2,2.6181532E1,2.7010332E1,2.4049604E0,1.4893427E0,1.2314783E0,1.9578547E0,6.1491737E1,1.0880951E1,2.355935E1,1.11388306E2,1.6653976E1,1.9522919E1,4.0006915E2,2.8453562E0,4.629008E0,2.1552525E1,1.9840261E1,7.170069E0,1.2492383E0,6.0242496E1,3.2435625E0,7.6373887E0,1.7034335E0,2.1855915E1,4.532902E0,1.0685541E2,9.83355E0,6.820425E0,3.2333748E0,1.6289543E1,3.717529E2,2.8316277E1],"tree_param":{"num_deleted":"0","num_feature":"21","num_nodes":"47","size_leaf_vector":"1"}},{"base_weights":[4.0128187E-4,3.9925635E-1,-1.0920618E-2,9.019217E-1,6.0987394E-2,-7.3489463E-1,-1.0164921E-3,9.642308E-4,1.0562248E0,-3.060906E-1,5.6009364E-1,-4.667223E-3,-9.208924E-1,1.274095E-1,-3.8344167E-2,1.14243915E-2,6.2036544E-2,-5.486544E-2,1.2054627E-1,4.4386096E-2,-1.9590078E-2,-1.2611205E-3,-1.1533352E0,4.995587E-2,5.399783E-1,9.862276E-2,-9.337647E-2,-3.5449523E-2,2.693663E-2,-6.738293E-2,-1.27049675E-2,-8.300647E-3,9.251664E-3,-1.0291909E-2,4.3156303E-2,-7.3511438E-3,1.1716964E-2,-1.3356877E-2,1.3566205E-3],"categories":[],"categories_nodes":[],"categories_segments":[],"categories_sizes":[],"default_left":[0,0,0,0,0,0,0,0,0,0,0,0,0,0,0,0,0,0,0,0,0,0,0,0,0,0,0,0,0,0,0,0,0,0,0,0,0,0,0],"id":23,"left_children":[1,3,5,7,9,11,13,-1,15,17,19,-1,21,23,25,-1,-1,-1,27,-1,-1,-1,29,31,33,35,37,-1,-1,-1,-1,-1,-1,-1,-1,-1,-1,-1,-1],"loss_changes":[3.221749E0,3.2934604E0,4.9738955E0,1.0486054E0,2.5245543E0,1.0311322E0,3.2906818E0,0E0,7.340007E-1,2.8487632E0,2.1555207E0,0E0,1.4583845E0,4.9128675E0,4.017951E0,0E0,0E0,0E0,2.5081935E0,0E0,0E0,0E0,6.4489555E-1,3.8597643E0,6.041988E0,5.1326666E0,7.962429E0,0E0,0E0,0E0,0E0,0E0,0E0,0E0,0E0,0E0,0E0,0E0,0E0],"parents":[2147483647,0,0,1,1,2,2,3,3,4,4,5,5,6,6,8,8,9,9,10,10,12,12,13,13,14,14,18,18,22,22,23,23,24,24,25,25,26,26],"right_children":[2,4,6,8,10,12,14,-1,16,18,20,-1,22,24,26,-1,-1,-1,28,-1,-1,-1,30,32,34,36,38,-1,-1,-1,-1,-1,-1,-1,-1,-1,-1,-1,-1],"split_conditions":[-7.492399E-1,-5.357886E-1,-7.142027E-1,-4.360889E-1,5.880228E-1,-6.089737E-1,-7.829933E-1,9.642308E-4,-1.1413964E0,-7.460924E-1,9.516974E-1,-4.667223E-3,-6.9477826E-1,7.586776E-1,-5.044643E-1,1.14243915E-2,6.2036544E-2,-5.486544E-2,-9.082841E-1,4.4386096E-2,-1.9590078E-2,-1.2611205E-3,6.917316E-1,-4.8549122E-1,-1.8277398E0,-1.1196095E0,1.6099144E-3,-3.5449523E-2,2.693663E-2,-6.738293E-2,-1.27049675E-2,-8.300647E-3,9.251664E-3,-1.0291909E-2,4.3156303E-2,-7.3511438E-3,1.1716964E-2,-1.3356877E-2,1.3566205E-3],"split_indices":[4,20,4,12,18,15,10,0,18,19,18,0,13,17,20,0,0,0,4,0,0,0,18,20,13,8,16,0,0,0,0,0,0,0,0,0,0,0,0],"split_type":[0,0,0,0,0,0,0,0,0,0,0,0,0,0,0,0,0,0,0,0,0,0,0,0,0,0,0,0,0,0,0,0,0,0,0,0,0,0,0],"sum_hessian":[7.114743E2,1.8692678E1,6.927816E2,6.8489294E0,1.1843749E1,8.361613E0,6.8442E2,1.1865667E0,5.6623626E0,7.0473514E0,4.796397E0,2.216891E0,6.144722E0,1.5358769E2,5.308323E2,1.4401034E0,4.2222595E0,1.9181166E0,5.129235E0,3.61841E0,1.177987E0,1.4944973E0,4.6502247E0,1.302553E2,2.3332401E1,1.5192422E2,3.7890808E2,1.4860443E0,3.6431906E0,3.413831E0,1.2363938E0,5.0032192E1,8.022311E1,7.1631227E0,1.616928E1,5.403609E1,9.788814E1,1.5467145E2,2.2423662E2],"tree_param":{"num_deleted":"0","num_feature":"21","num_nodes":"39","size_leaf_vector":"1"}},{"base_weights":[3.5589543E-4,1.7134313E-2,-2.595683E-1,-2.359943E-2,1.4744942E-1,-4.1998968E-1,8.288925E-2,-1.2689673E-3,-6.75625E-1,3.5327766E-2,4.4719353E-1,-7.9575956E-1,-6.984726E-2,3.1808826E-1,-4.696016E-2,4.3006163E-2,-2.9911855E-1,-1.2508682E0,-2.6936096E-1,4.5088306E-1,-3.0521456E-2,9.313573E-1,1.9818251E-1,-1.6643193E-1,-1.2303083E0,3.4795487E-1,-7.2731465E-1,-6.782563E-1,6.923373E-1,5.29646E-4,3.7035543E-2,1.36998E-2,-2.0539716E-2,-1.368348E-2,-7.109288E-2,-4.854868E-2,3.6201973E-3,-4.8755627E-2,3.6102872E-2,4.914988E-3,-2.20431E-2,6.4155705E-2,3.1932627E-3,-5.2444497E-3,2.8302459E-2,2.6046557E-2,-2.4861893E-2,-6.897078E-2,-1.1020094E-2,2.781632E-2,-3.424157E-2,1.2163975E-2,-4.9599934E-2,-5.5856396E-2,-3.223277E-3,4.9876984E-2,-1.6539592E-2],"categories":[],"categories_nodes":[],"categories_segments":[],"categories_sizes":[],"default_left":[0,0,0,0,0,0,0,0,0,0,0,0,0,0,0,0,0,0,0,0,0,0,0,0,0,0,0,0,0,0,0,0,0,0,0,0,0,0,0,0,0,0,0,0,0,0,0,0,0,0,0,0,0,0,0,0,0],"id":24,"left_children":[1,3,5,7,9,11,13,15,17,19,21,23,25,27,-1,29,31,33,35,37,39,41,43,45,47,49,51,53,55,-1,-1,-1,-1,-1,-1,-1,-1,-1,-1,-1,-1,-1,-1,-1,-1,-1,-1,-1,-1,-1,-1,-1,-1,-1,-1,-1,-1],"loss_changes":[3.109809E0,3.5590205E0,2.4102492E0,7.4417744E0,5.349654E0,3.8403277E0,3.8154018E0,6.543806E0,3.6184077E0,3.2228389E0,5.044833E0,3.674797E0,4.76461E0,5.1824574E0,0E0,9.762399E0,4.2225933E0,7.3557854E-1,2.7544165E0,6.931693E0,5.4440455E0,4.3308935E0,3.3944643E0,1.8395529E0,9.360819E-1,2.687706E0,1.9639163E0,9.93718E-1,3.3535342E0,0E0,0E0,0E0,0E0,0E0,0E0,0E0,0E0,0E0,0E0,0E0,0E0,0E0,0E0,0E0,0E0,0E0,0E0,0E0,0E0,0E0,0E0,0E0,0E0,0E0,0E0,0E0,0E0],"parents":[2147483647,0,0,1,1,2,2,3,3,4,4,5,5,6,6,7,7,8,8,9,9,10,10,11,11,12,12,13,13,15,15,16,16,17,17,18,18,19,19,20,20,21,21,22,22,23,23,24,24,25,25,26,26,27,27,28,28],"right_children":[2,4,6,8,10,12,14,16,18,20,22,24,26,28,-1,30,32,34,36,38,40,42,44,46,48,50,52,54,56,-1,-1,-1,-1,-1,-1,-1,-1,-1,-1,-1,-1,-1,-1,-1,-1,-1,-1,-1,-1,-1,-1,-1,-1,-1,-1,-1,-1],"split_conditions":[1.5314441E0,4.5670158E-1,1.7475581E0,4.0463915E-1,1.4339641E0,1.1871881E-1,1.1292515E0,1.3397616E0,-3.254617E-1,-7.2548217E-1,1.1212642E0,1.6833344E0,1.85043E0,3.533623E-1,-4.696016E-2,5.6295645E-1,-2.3375533E0,-2.5017568E-1,4.7888555E-2,-7.063383E-2,8.957012E-1,1.8304249E0,2.556953E-1,1.5939157E0,2.2038658E0,3.591249E0,1.1856687E0,1.7587553E0,1.9594672E0,5.29646E-4,3.7035543E-2,1.36998E-2,-2.0539716E-2,-1.368348E-2,-7.109288E-2,-4.854868E-2,3.6201973E-3,-4.8755627E-2,3.6102872E-2,4.914988E-3,-2.20431E-2,6.4155705E-2,3.1932627E-3,-5.2444497E-3,2.8302459E-2,2.6046557E-2,-2.4861893E-2,-6.897078E-2,-1.1020094E-2,2.781632E-2,-3.424157E-2,1.2163975E-2,-4.9599934E-2,-5.5856396E-2,-3.223277E-3,4.9876984E-2,-1.6539592E-2],"split_indices":[11,13,15,13,20,4,18,0,4,2,13,11,10,18,0,1,11,10,10,17,17,8,11,3,11,12,12,19,20,0,0,0,0,0,0,0,0,0,0,0,0,0,0,0,0,0,0,0,0,0,0,0,0,0,0,0,0],"split_type":[0,0,0,0,0,0,0,0,0,0,0,0,0,0,0,0,0,0,0,0,0,0,0,0,0,0,0,0,0,0,0,0,0,0,0,0,0,0,0,0,0,0,0,0,0,0,0,0,0,0,0,0,0,0,0,0,0],"sum_hessian":[7.1105646E2,6.6881757E2,4.223889E1,5.1016855E2,1.5864897E2,2.8610258E1,1.36286335E1,4.9424374E2,1.592483E1,1.1627373E2,4.2375248E1,1.3186232E1,1.5424026E1,1.163909E1,1.9895442E0,4.310274E2,6.3216312E1,5.7310658E0,1.0193765E1,1.5104762E1,1.0116897E2,1.3461399E1,2.8913849E1,5.9509187E0,7.235313E0,9.718779E0,5.7052474E0,2.956318E0,8.682772E0,4.1286227E2,1.8165146E1,1.0072294E1,5.3144016E1,1.240747E0,4.490319E0,2.7359822E0,7.4577823E0,1.9986719E0,1.3106091E1,7.757555E1,2.359342E1,9.236863E0,4.224536E0,1.6245043E1,1.2668808E1,1.7467375E0,4.204181E0,5.9856763E0,1.2496368E0,8.471026E0,1.2477518E0,1.2397957E0,4.4654517E0,1.2456259E0,1.710692E0,6.70705E0,1.9757217E0],"tree_param":{"num_deleted":"0","num_feature":"21","num_nodes":"57","size_leaf_vector":"1"}},{"base_weights":[1.6264996E-5,4.513562E-2,-4.7523174E-3,5.15969E-1,-1.3154249E-2,-3.400525E-2,7.3038983E-1,-4.0133044E-2,1.6014259E-1,1.0479666E-1,9.2163044E-1,-3.3584747E-2,-5.6971192E-2,2.4730392E-1,-6.076826E-1,-3.782249E-2,4.3642834E-2,4.613466E-3,5.2393492E-2,-2.0372683E-2,-7.9786027E-4,2.7059829E-2,5.0409394E-3,-4.4444587E-2,4.8114625E-3],"categories":[],"categories_nodes":[],"categories_segments":[],"categories_sizes":[],"default_left":[0,0,0,0,0,0,0,0,0,0,0,0,0,0,0,0,0,0,0,0,0,0,0,0,0],"id":25,"left_children":[1,-1,3,5,7,-1,9,11,13,15,17,19,-1,21,23,-1,-1,-1,-1,-1,-1,-1,-1,-1,-1],"loss_changes":[3.0678735E0,0E0,3.108524E0,3.390257E0,3.2729728E0,0E0,1.1057186E0,4.3193913E0,6.46247E0,2.962989E0,6.957016E-1,3.9662082E0,0E0,3.622559E0,2.0460875E0,0E0,0E0,0E0,0E0,0E0,0E0,0E0,0E0,0E0,0E0],"parents":[2147483647,0,0,2,2,3,3,4,4,6,6,7,7,8,8,9,9,10,10,11,11,13,13,14,14],"right_children":[2,-1,4,6,8,-1,10,12,14,16,18,20,-1,22,24,-1,-1,-1,-1,-1,-1,-1,-1,-1,-1],"split_conditions":[-1.2561177E0,4.513562E-2,-7.988474E-1,-6.9770795E-1,5.7452726E-1,-3.400525E-2,-9.082841E-1,2.0811746E0,1.85043E0,3.4781814E-1,-1.2772825E0,-1.1821164E0,-5.6971192E-2,8.485456E-1,2.112254E0,-3.782249E-2,4.3642834E-2,4.613466E-3,5.2393492E-2,-2.0372683E-2,-7.9786027E-4,2.7059829E-2,5.0409394E-3,-4.4444587E-2,4.8114625E-3],"split_indices":[3,0,4,11,4,0,4,9,10,13,17,8,0,4,4,0,0,0,0,0,0,0,0,0,0],"split_type":[0,0,0,0,0,0,0,0,0,0,0,0,0,0,0,0,0,0,0,0,0,0,0,0,0],"sum_hessian":[7.107031E2,2.7451234E0,7.07958E2,1.0282382E1,6.976756E2,1.2329521E0,9.04943E0,6.043578E2,9.331782E1,2.4811115E0,6.568318E0,6.0180347E2,2.5542953E0,8.441337E1,8.9044485E0,1.1767294E0,1.3043821E0,1.096367E0,5.471951E0,2.6101107E1,5.757024E2,2.718255E1,5.7230816E1,6.174843E0,2.729606E0],"tree_param":{"num_deleted":"0","num_feature":"21","num_nodes":"25","size_leaf_vector":"1"}},{"base_weights":[3.144396E-6,4.969989E-1,-8.402902E-3,-2.6007238E-1,9.439385E-1,3.7490398E-1,-1.9310327E-2,-6.457472E-1,2.7228883E-2,-7.316138E-3,6.1347634E-2,8.6928123E-1,4.506332E-2,-7.071635E-1,-9.766079E-3,4.1174125E-3,-5.010746E-2,7.817342E-4,1.0210884E0,-3.044322E-1,5.265901E-1,-8.486102E-1,1.0394859E-3,2.2570707E-1,-2.9720092E-2,1.0864152E-2,6.0205728E-2,-5.383114E-2,5.6554116E-3,5.0515838E-2,-7.6739625E-3,-8.996351E-4,-5.2088972E-2,-6.539564E-3,2.1406574E-2,2.3960322E-3,-4.23892E-3],"categories":[],"categories_nodes":[],"categories_segments":[],"categories_sizes":[],"default_left":[0,0,0,0,0,0,0,0,0,0,0,0,0,0,0,0,0,0,0,0,0,0,0,0,0,0,0,0,0,0,0,0,0,0,0,0,0],"id":26,"left_children":[1,3,5,7,9,11,13,15,-1,-1,-1,17,19,21,23,-1,-1,-1,25,27,29,31,-1,33,35,-1,-1,-1,-1,-1,-1,-1,-1,-1,-1,-1,-1],"loss_changes":[2.9762928E0,4.254822E0,2.9362185E0,1.95996E0,2.5451427E0,3.1296368E0,4.4713097E0,1.1103393E0,0E0,0E0,0E0,9.8472977E-1,2.2994106E0,9.774256E-1,3.172691E0,0E0,0E0,0E0,7.005997E-1,2.7007322E0,2.03411E0,1.2373672E0,0E0,3.8629656E0,2.6632025E0,0E0,0E0,0E0,0E0,0E0,0E0,0E0,0E0,0E0,0E0,0E0,0E0],"parents":[2147483647,0,0,1,1,2,2,3,3,4,4,5,5,6,6,7,7,11,11,12,12,13,13,14,14,18,18,19,19,20,20,21,21,23,23,24,24],"right_children":[2,4,6,8,10,12,14,16,-1,-1,-1,18,20,22,24,-1,-1,-1,26,28,30,32,-1,34,36,-1,-1,-1,-1,-1,-1,-1,-1,-1,-1,-1,-1],"split_conditions":[-2.0007098E0,-2.3375533E0,-7.492399E-1,1.7540371E0,-2.2722982E-1,-5.357886E-1,-7.142027E-1,-2.4305286E0,2.7228883E-2,-7.316138E-3,6.1347634E-2,-4.360889E-1,5.880228E-1,8.1354964E-1,-1.0958916E0,4.1174125E-3,-5.010746E-2,7.817342E-4,-1.1413964E0,-7.460924E-1,-7.988474E-1,-6.9477826E-1,1.0394859E-3,-5.193685E-1,-5.672151E-1,1.0864152E-2,6.0205728E-2,-5.383114E-2,5.6554116E-3,5.0515838E-2,-7.6739625E-3,-8.996351E-4,-5.2088972E-2,-6.539564E-3,2.1406574E-2,2.3960322E-3,-4.23892E-3],"split_indices":[10,11,4,8,4,20,4,12,0,0,0,12,18,18,17,0,0,0,18,19,4,13,0,8,14,0,0,0,0,0,0,0,0,0,0,0,0],"split_type":[0,0,0,0,0,0,0,0,0,0,0,0,0,0,0,0,0,0,0,0,0,0,0,0,0,0,0,0,0,0,0,0,0,0,0,0,0],"sum_hessian":[7.104124E2,1.0849123E1,6.995633E2,4.182495E0,6.6666274E0,1.8432713E1,6.8113055E2,2.9608285E0,1.2216667E0,1.4734418E0,5.1931853E0,6.722029E0,1.1710683E1,8.32131E0,6.7280927E2,1.2257283E0,1.7351003E0,1.1814502E0,5.5405793E0,6.9987316E0,4.7119513E0,6.828696E0,1.4926146E0,5.1754448E1,6.210548E2,1.4332541E0,4.107325E0,1.9022545E0,5.096477E0,2.4696822E0,2.242269E0,1.4947011E0,5.333995E0,1.887201E1,3.288244E1,2.5773633E2,3.6331848E2],"tree_param":{"num_deleted":"0","num_feature":"21","num_nodes":"37","size_leaf_vector":"1"}},{"base_weights":[9.907377E-5,8.7171644E-1,-4.4542025E-3,5.042134E-2,1.36403665E-2,-7.601124E-1,1.1482405E-3,-5.400353E-3,-6.063023E-2,8.101476E-1,-6.2310547E-3,5.9521396E-2,-6.281398E-3,-6.9020474E-1,4.462477E-3,-1.3173292E-2,-5.675247E-2,9.304643E-4,-1.5910553E-2],"categories":[],"categories_nodes":[],"categories_segments":[],"categories_sizes":[],"default_left":[0,0,0,0,0,0,0,0,0,0,0,0,0,0,0,0,0,0,0],"id":27,"left_children":[1,3,5,-1,-1,7,9,-1,-1,11,13,-1,-1,15,17,-1,-1,-1,-1],"loss_changes":[2.8260293E0,2.7881145E-2,2.999898E0,0E0,0E0,1.4078071E0,4.2089114E0,0E0,0E0,2.4173508E0,5.1142435E0,0E0,0E0,1.7442594E0,3.1512816E0,0E0,0E0,0E0,0E0],"parents":[2147483647,0,0,1,1,2,2,5,5,6,6,9,9,10,10,13,13,14,14],"right_children":[2,4,6,-1,-1,8,10,-1,-1,12,14,-1,-1,16,18,-1,-1,-1,-1],"split_conditions":[-1.2561177E0,-1.220019E0,-1.2459277E0,5.042134E-2,1.36403665E-2,-1.2536379E0,-1.2303818E0,-5.400353E-3,-6.063023E-2,-1.4743206E-1,-1.2166727E0,5.9521396E-2,-6.281398E-3,-6.8372875E-2,1.8124646E0,-1.3173292E-2,-5.675247E-2,9.304643E-4,-1.5910553E-2],"split_indices":[3,15,7,0,0,7,14,0,0,12,15,0,0,13,10,0,0,0,0],"split_type":[0,0,0,0,0,0,0,0,0,0,0,0,0,0,0,0,0,0,0],"sum_hessian":[7.100984E2,2.7005138E0,7.073979E2,1.641942E0,1.0585717E0,4.2149115E0,7.03183E2,2.2340386E0,1.980873E0,5.3727846E0,6.978102E2,3.6267977E0,1.745987E0,9.763732E0,6.8804645E2,5.795949E0,3.9677827E0,6.6005054E2,2.7995928E1],"tree_param":{"num_deleted":"0","num_feature":"21","num_nodes":"19","size_leaf_vector":"1"}},{"base_weights":[4.7735914E-5,1.9397601E-1,-1.983104E-2,2.7307498E-1,-4.112533E-1,8.581879E-2,-6.976309E-2,4.9251016E-2,1.8642892E-1,1.6306871E-1,-9.77436E-1,1.1452319E-1,-5.8716947E-1,-4.170107E-1,-3.7694804E-2,-4.8778396E-2,4.0948382E-1,4.291659E-2,-4.2052057E-2,-1.6597558E-2,-5.669851E-2,3.0094877E-1,2.0133242E-2,-1.0031555E0,1.612663E-1,1.920065E-2,-7.713425E-1,1.118388E-1,-8.6852215E-2,3.90175E-2,-1.2633233E-2,2.9431874E-2,-4.6948246E-3,9.198036E-3,4.7342397E-2,-6.7824484E-3,9.869202E-3,-5.950464E-2,-1.40219955E-2,2.290883E-2,-1.3834173E-2,2.4770593E-2,-3.2231648E-2,6.301666E-3,-4.7353406E-2,-4.4338605E-3,2.1275729E-2,4.514076E-2,-5.185709E-3],"categories":[],"categories_nodes":[],"categories_segments":[],"categories_sizes":[],"default_left":[0,0,0,0,0,0,0,0,0,0,0,0,0,0,0,0,0,0,0,0,0,0,0,0,0,0,0,0,0,0,0,0,0,0,0,0,0,0,0,0,0,0,0,0,0,0,0,0,0],"id":28,"left_children":[1,3,5,7,9,11,13,-1,15,17,19,21,23,25,27,29,31,-1,-1,-1,-1,33,35,37,39,41,43,45,47,-1,-1,-1,-1,-1,-1,-1,-1,-1,-1,-1,-1,-1,-1,-1,-1,-1,-1,-1,-1],"loss_changes":[2.744719E0,3.2813265E0,3.412703E0,3.4649186E0,2.7771611E0,4.0796285E0,4.873713E0,0E0,2.8510537E0,4.110231E0,4.7636986E-2,3.514073E0,2.8579268E0,5.7369843E0,2.972468E0,4.788365E0,2.5626159E0,0E0,0E0,0E0,0E0,4.9012756E0,3.7234275E0,4.3696356E-1,6.410735E-1,5.873432E0,3.3445177E0,6.337264E0,5.1650705E0,0E0,0E0,0E0,0E0,0E0,0E0,0E0,0E0,0E0,0E0,0E0,0E0,0E0,0E0,0E0,0E0,0E0,0E0,0E0,0E0],"parents":[2147483647,0,0,1,1,2,2,3,3,4,4,5,5,6,6,8,8,9,9,10,10,11,11,12,12,13,13,14,14,15,15,16,16,21,21,22,22,23,23,24,24,25,25,26,26,27,27,28,28],"right_children":[2,4,6,8,10,12,14,-1,16,18,20,22,24,26,28,30,32,-1,-1,-1,-1,34,36,38,40,42,44,46,48,-1,-1,-1,-1,-1,-1,-1,-1,-1,-1,-1,-1,-1,-1,-1,-1,-1,-1,-1,-1],"split_conditions":[-1.398896E0,1.6397816E0,-3.2656214E-1,-1.4848326E0,-1.7980766E0,1.7431579E0,-2.5142348E-1,4.9251016E-2,-2.3572664E-1,-2.7909E-1,-1.9166498E-1,-4.9121597E-1,1.8654926E0,-3.5330284E-1,-5.2293867E-1,-4.389871E-1,1.61237E0,4.291659E-2,-4.2052057E-2,-1.6597558E-2,-5.669851E-2,-5.934561E-1,2.865466E-1,-1.1234182E0,1.9016895E0,-7.8391707E-1,-8.530824E-1,-9.906824E-1,-2.951913E-1,3.90175E-2,-1.2633233E-2,2.9431874E-2,-4.6948246E-3,9.198036E-3,4.7342397E-2,-6.7824484E-3,9.869202E-3,-5.950464E-2,-1.40219955E-2,2.290883E-2,-1.3834173E-2,2.4770593E-2,-3.2231648E-2,6.301666E-3,-4.7353406E-2,-4.4338605E-3,2.1275729E-2,4.514076E-2,-5.185709E-3],"split_indices":[18,4,12,20,18,20,11,0,17,20,17,17,0,4,20,4,7,0,0,0,0,17,17,12,14,18,17,19,12,0,0,0,0,0,0,0,0,0,0,0,0,0,0,0,0,0,0,0,0],"split_type":[0,0,0,0,0,0,0,0,0,0,0,0,0,0,0,0,0,0,0,0,0,0,0,0,0,0,0,0,0,0,0,0,0,0,0,0,0,0,0,0,0,0,0,0,0,0,0,0,0],"sum_hessian":[7.099811E2,6.519644E1,6.4478467E2,5.8146E1,7.0504427E0,2.0670486E2,4.3807977E2,5.1838117E0,5.2962185E1,3.8535156E0,3.196927E0,1.99045E2,7.659867E0,3.6021492E1,4.020583E2,2.6159153E1,2.6803032E1,2.3627133E0,1.4908022E0,1.2330302E0,1.963897E0,6.6169014E1,1.3287598E2,4.704652E0,2.9552152E0,1.6569233E1,1.9452261E1,9.915628E1,3.02902E2,4.604996E0,2.1554157E1,1.9642776E1,7.160256E0,5.7109844E1,9.059169E0,7.084576E1,6.2030224E1,3.224029E0,1.4806225E0,1.7336756E0,1.2215395E0,9.795786E0,6.7734466E0,3.2317097E0,1.6220552E1,6.0926533E1,3.822975E1,4.1941843E0,2.9870782E2],"tree_param":{"num_deleted":"0","num_feature":"21","num_nodes":"49","size_leaf_vector":"1"}},{"base_weights":[9.791817E-5,-2.377904E-2,1.5519665E-1,1.2281231E-2,-2.1681726E-1,2.3620126E-1,-5.676138E-1,-2.4441717E-2,2.8086254E-1,4.9920022E-1,-2.6680252E-1,-8.414073E-2,3.6627075E-1,-8.73575E-1,1.0580118E-1,-1.8866375E-3,-5.8677095E-1,6.8286407E-1,-6.0925963E-3,-1.4090071E-2,8.30562E-1,-4.5488128E-1,-1.3887079E-2,-5.712795E-1,4.2948455E-1,-1.7032467E-1,5.3803664E-1,-6.869676E-2,5.913124E-3,-3.477598E-2,4.314248E-2,-2.8912686E-3,8.471598E-3,3.4996662E-2,-3.6353804E-2,6.0872514E-2,1.4066105E-2,-7.0632407E-3,4.0616527E-2,6.0009222E-2,9.049492E-3,-8.155483E-3,-4.3447502E-2,2.8864836E-2,-2.7153252E-2,2.923781E-2,-3.671735E-2,3.85471E-2,-4.972348E-2,1.8821264E-2,-2.454699E-2,1.933301E-2,5.5805035E-2],"categories":[],"categories_nodes":[],"categories_segments":[],"categories_sizes":[],"default_left":[0,0,0,0,0,0,0,0,0,0,0,0,0,0,0,0,0,0,0,0,0,0,0,0,0,0,0,0,0,0,0,0,0,0,0,0,0,0,0,0,0,0,0,0,0,0,0,0,0,0,0,0,0],"id":29,"left_children":[1,3,5,7,9,11,13,15,17,19,21,23,25,27,29,31,33,35,37,-1,39,41,43,45,47,49,51,-1,-1,-1,-1,-1,-1,-1,-1,-1,-1,-1,-1,-1,-1,-1,-1,-1,-1,-1,-1,-1,-1,-1,-1,-1,-1],"loss_changes":[2.634572E0,4.2941895E0,5.691086E0,5.139785E0,3.6081638E0,3.6162682E0,2.1236227E0,5.8172574E0,7.2343974E0,1.9638468E0,4.341808E0,6.666374E0,5.7496853E0,3.580124E0,3.0095468E0,4.246134E0,3.7020097E0,5.2631903E0,4.2702746E0,0E0,9.703624E-1,6.187977E0,1.283222E1,2.993208E0,7.118004E0,2.927328E0,3.6586857E0,0E0,0E0,0E0,0E0,0E0,0E0,0E0,0E0,0E0,0E0,0E0,0E0,0E0,0E0,0E0,0E0,0E0,0E0,0E0,0E0,0E0,0E0,0E0,0E0,0E0,0E0],"parents":[2147483647,0,0,1,1,2,2,3,3,4,4,5,5,6,6,7,7,8,8,9,9,10,10,11,11,12,12,13,13,14,14,15,15,16,16,17,17,18,18,20,20,21,21,22,22,23,23,24,24,25,25,26,26],"right_children":[2,4,6,8,10,12,14,16,18,20,22,24,26,28,30,32,34,36,38,-1,40,42,44,46,48,50,52,-1,-1,-1,-1,-1,-1,-1,-1,-1,-1,-1,-1,-1,-1,-1,-1,-1,-1,-1,-1,-1,-1,-1,-1,-1,-1],"split_conditions":[5.7452726E-1,7.4670476E-1,1.85043E0,4.246343E-1,-5.621377E-1,-4.3956563E-1,1.6697028E0,1.475039E0,5.474771E-1,8.183933E-1,5.880228E-1,1.5648551E-1,-8.02326E-1,2.112254E0,3.9617717E-1,2.865466E-1,1.155621E-1,-2.7620646E-1,1.3616892E0,-1.4090071E-2,1.4708185E0,3.5118908E-1,1.3368596E0,6.335737E-1,1.610734E0,-1.05004616E-1,1.2928414E0,-6.869676E-2,5.913124E-3,-3.477598E-2,4.314248E-2,-2.8912686E-3,8.471598E-3,3.4996662E-2,-3.6353804E-2,6.0872514E-2,1.4066105E-2,-7.0632407E-3,4.0616527E-2,6.0009222E-2,9.049492E-3,-8.155483E-3,-4.3447502E-2,2.8864836E-2,-2.7153252E-2,2.923781E-2,-3.671735E-2,3.85471E-2,-4.972348E-2,1.8821264E-2,-2.454699E-2,1.933301E-2,5.5805035E-2],"split_indices":[4,12,10,11,20,17,18,18,11,11,18,7,11,4,17,17,13,17,19,0,10,10,10,4,20,20,18,0,0,0,0,0,0,0,0,0,0,0,0,0,0,0,0,0,0,0,0,0,0,0,0,0,0],"split_type":[0,0,0,0,0,0,0,0,0,0,0,0,0,0,0,0,0,0,0,0,0,0,0,0,0,0,0,0,0,0,0,0,0,0,0,0,0,0,0,0,0,0,0,0,0,0,0,0,0,0,0,0,0],"sum_hessian":[7.094182E2,6.155092E2,9.390901E1,5.194166E2,9.609261E1,8.505069E1,8.858323E0,4.5773923E2,6.1677387E1,5.684052E0,9.040856E1,2.4662846E1,6.0387844E1,5.886571E0,2.9717517E0,4.4105194E2,1.6687279E1,2.5114403E1,3.656299E1,1.7377756E0,3.9462764E0,5.139241E1,3.901615E1,1.260018E1,1.2062666E1,1.4645087E1,4.5742756E1,3.6566365E0,2.2299347E0,1.4831458E0,1.4886059E0,3.3298767E2,1.08064255E2,1.2485423E0,1.5438737E1,9.900971E0,1.521343E1,3.209029E1,4.4726954E0,1.974872E0,1.9714043E0,3.0966162E1,2.0426247E1,1.838546E1,2.063069E1,1.237955E0,1.1362225E1,1.0099456E1,1.9632108E0,5.3491044E0,9.295983E0,3.7572586E1,8.170169E0],"tree_param":{"num_deleted":"0","num_feature":"21","num_nodes":"53","size_leaf_vector":"1"}},{"base_weights":[2.5852202E-4,4.8253202E-1,-7.34722E-3,-3.319674E-2,6.943536E-1,1.00435115E-1,-4.376618E-2,8.605534E-2,8.839839E-1,7.623569E-1,4.3176223E-2,8.638871E-1,-5.0943706E-2,-3.6861014E-2,4.200987E-2,4.57251E-3,5.0260823E-2,1.8718334E-1,1.262935E0,-1.9207751E-2,4.919493E-1,4.4085993E-3,5.7872165E-2,-2.2045581E-1,-2.0570634E-4,2.4853062E-2,-3.553752E-2,6.8145566E-2,1.9570729E-2,3.6542251E-4,-7.058457E-2,3.9477915E-2,2.6496314E-3,-5.451139E-3,-4.4210356E-2,-2.0018173E-3,1.7745886E-2],"categories":[],"categories_nodes":[],"categories_segments":[],"categories_sizes":[],"default_left":[0,0,0,0,0,0,0,0,0,0,0,0,0,0,0,0,0,0,0,0,0,0,0,0,0,0,0,0,0,0,0,0,0,0,0,0,0],"id":30,"left_children":[1,3,5,-1,7,9,11,13,15,17,19,21,23,-1,-1,-1,-1,25,27,29,31,-1,-1,33,35,-1,-1,-1,-1,-1,-1,-1,-1,-1,-1,-1,-1],"loss_changes":[2.608125E0,3.1418843E0,2.7522497E0,0E0,1.0551429E0,6.679385E0,3.4572718E0,2.754217E0,6.1601686E-1,3.8060484E0,4.602545E0,8.4668374E-1,4.4789042E0,0E0,0E0,0E0,0E0,2.497846E0,1.05462074E-1,5.364235E0,2.578793E0,0E0,0E0,8.776699E0,5.697587E0,0E0,0E0,0E0,0E0,0E0,0E0,0E0,0E0,0E0,0E0,0E0,0E0],"parents":[2147483647,0,0,1,1,2,2,4,4,5,5,6,6,7,7,8,8,9,9,10,10,11,11,12,12,17,17,18,18,19,19,20,20,23,23,24,24],"right_children":[2,4,6,-1,8,10,12,14,16,18,20,22,24,-1,-1,-1,-1,26,28,30,32,-1,-1,34,36,-1,-1,-1,-1,-1,-1,-1,-1,-1,-1,-1,-1],"split_conditions":[-7.988474E-1,-6.9770795E-1,-4.507465E-1,-3.319674E-2,-9.082841E-1,-7.931378E-1,-2.6843271E0,3.4781814E-1,-1.2772825E0,-1.0980303E0,-3.5592204E-1,-3.763819E-1,-3.27056E-1,-3.6861014E-2,4.200987E-2,4.57251E-3,5.0260823E-2,-9.906824E-1,-3.415767E-1,-3.6714214E-1,-1.0693859E0,4.4085993E-3,5.7872165E-2,1.5054153E0,1.1644293E0,2.4853062E-2,-3.553752E-2,6.8145566E-2,1.9570729E-2,3.6542251E-4,-7.058457E-2,3.9477915E-2,2.6496314E-3,-5.451139E-3,-4.4210356E-2,-2.0018173E-3,1.7745886E-2],"split_indices":[4,11,11,0,4,3,13,13,17,1,12,17,13,0,0,0,0,19,12,12,10,0,0,20,19,0,0,0,0,0,0,0,0,0,0,0,0],"split_type":[0,0,0,0,0,0,0,0,0,0,0,0,0,0,0,0,0,0,0,0,0,0,0,0,0,0,0,0,0,0,0,0,0,0,0,0,0],"sum_hessian":[7.0907245E2,1.0039404E1,6.99033E2,1.2327639E0,8.806641E0,1.7610132E2,5.229317E2,2.4384289E0,6.3682113E0,1.3040214E1,1.6306111E2,3.1663213E0,5.197654E2,1.1765075E0,1.2619214E0,1.0776467E0,5.2905645E0,6.7073174E0,6.3328958E0,1.4400075E2,1.9060356E1,1.2262758E0,1.9400456E0,1.1896539E2,4.008E2,5.318378E0,1.3889393E0,5.175373E0,1.157523E0,1.4228604E2,1.7147133E0,1.0883034E1,8.177322E0,1.0286096E2,1.6104425E1,3.6117758E2,3.9622417E1],"tree_param":{"num_deleted":"0","num_feature":"21","num_nodes":"37","size_leaf_vector":"1"}},{"base_weights":[4.020325E-4,4.6475E-1,-7.379162E-3,-2.4577944E-1,8.918568E-1,3.525315E-1,-1.7483978E-2,-6.210056E-1,2.6720095E-2,-7.877845E-3,5.8594298E-2,8.365155E-1,3.192499E-2,-6.802587E-1,-8.32458E-3,-4.8059065E-2,3.912203E-3,1.8216275E-1,5.3492326E-2,-4.222345E-1,3.9407265E-1,-3.2219854E-3,-8.6318946E-1,2.1408357E-1,-2.7172858E-2,-7.3441374E-3,2.0910852E-2,-4.776719E-2,2.541222E-2,3.3947647E-2,-2.359665E-2,-9.777298E-4,-5.4291543E-2,3.9391723E-3,3.614007E-2,2.2206996E-2,-1.7713441E-3],"categories":[],"categories_nodes":[],"categories_segments":[],"categories_sizes":[],"default_left":[0,0,0,0,0,0,0,0,0,0,0,0,0,0,0,0,0,0,0,0,0,0,0,0,0,0,0,0,0,0,0,0,0,0,0,0,0],"id":31,"left_children":[1,3,5,7,9,11,13,15,-1,-1,-1,17,19,21,23,-1,-1,25,-1,27,29,-1,31,33,35,-1,-1,-1,-1,-1,-1,-1,-1,-1,-1,-1,-1],"loss_changes":[2.567509E0,3.7732675E0,2.5480704E0,1.8485142E0,2.3976183E0,2.942376E0,4.1272125E0,1.0173576E0,0E0,0E0,0E0,9.631829E-1,2.23047E0,9.884224E-1,2.8250787E0,0E0,0E0,3.0989826E-1,0E0,3.486782E0,2.1705732E0,0E0,1.3057065E0,3.567245E0,2.431089E0,0E0,0E0,0E0,0E0,0E0,0E0,0E0,0E0,0E0,0E0,0E0,0E0],"parents":[2147483647,0,0,1,1,2,2,3,3,4,4,5,5,6,6,7,7,11,11,12,12,13,13,14,14,17,17,19,19,20,20,22,22,23,23,24,24],"right_children":[2,4,6,8,10,12,14,16,-1,-1,-1,18,20,22,24,-1,-1,26,-1,28,30,-1,32,34,36,-1,-1,-1,-1,-1,-1,-1,-1,-1,-1,-1,-1],"split_conditions":[-2.0007098E0,-2.3375533E0,-7.492399E-1,1.7540371E0,-2.2722982E-1,-5.357886E-1,-7.142027E-1,1.5012772E0,2.6720095E-2,-7.877845E-3,5.8594298E-2,-3.3243257E-1,-2.6136833E-1,-6.089737E-1,-1.0958916E0,-4.8059065E-2,3.912203E-3,-1.1610335E0,5.3492326E-2,-5.262944E-1,1.6376219E0,-3.2219854E-3,-6.9477826E-1,2.6010317E-1,-2.4400444E0,-7.3441374E-3,2.0910852E-2,-4.776719E-2,2.541222E-2,3.3947647E-2,-2.359665E-2,-9.777298E-4,-5.4291543E-2,3.9391723E-3,3.614007E-2,2.2206996E-2,-1.7713441E-3],"split_indices":[10,11,4,8,4,20,4,1,0,0,0,11,20,15,17,0,0,0,0,0,15,0,13,11,11,0,0,0,0,0,0,0,0,0,0,0,0],"split_type":[0,0,0,0,0,0,0,0,0,0,0,0,0,0,0,0,0,0,0,0,0,0,0,0,0,0,0,0,0,0,0,0,0,0,0,0,0],"sum_hessian":[7.086458E2,1.0711353E1,6.979345E2,4.180791E0,6.530563E0,1.8134573E1,6.797999E2,2.9608176E0,1.2199733E0,1.4676981E0,5.062865E0,6.5849066E0,1.1549667E1,8.267862E0,6.7153204E2,1.7398257E0,1.2209918E0,2.1989326E0,4.385974E0,5.050303E0,6.499365E0,2.2032146E0,6.064647E0,5.165453E1,6.198775E2,1.0763391E0,1.1225934E0,3.1937504E0,1.8565524E0,5.0530977E0,1.4462668E0,1.4934567E0,4.5711904E0,4.17148E1,9.939728E0,9.760055E0,6.1011743E2],"tree_param":{"num_deleted":"0","num_feature":"21","num_nodes":"37","size_leaf_vector":"1"}},{"base_weights":[5.1589543E-4,8.291595E-1,-3.731001E-3,4.8395164E-2,1.2031189E-2,-7.3820955E-1,1.7086371E-3,-5.462793E-3,-5.8731586E-2,7.849939E-1,-5.408491E-3,1.1539418E0,-5.89016E-3,-6.695706E-1,4.95669E-3,1.8349905E-2,6.5343976E-2,-1.2967004E-2,-5.475231E-2,5.5857915E-3,-1.6797445E-3],"categories":[],"categories_nodes":[],"categories_segments":[],"categories_sizes":[],"default_left":[0,0,0,0,0,0,0,0,0,0,0,0,0,0,0,0,0,0,0,0,0],"id":32,"left_children":[1,3,5,-1,-1,7,9,-1,-1,11,13,15,-1,17,19,-1,-1,-1,-1,-1,-1],"loss_changes":[2.4995267E0,6.282449E-2,2.8249815E0,0E0,0E0,1.2985113E0,3.9208515E0,0E0,0E0,2.2453742E0,4.8031597E0,7.26037E-2,0E0,1.5873547E0,2.833354E0,0E0,0E0,0E0,0E0,0E0,0E0],"parents":[2147483647,0,0,1,1,2,2,5,5,6,6,9,9,10,10,11,11,13,13,14,14],"right_children":[2,4,6,-1,-1,8,10,-1,-1,12,14,16,-1,18,20,-1,-1,-1,-1,-1,-1],"split_conditions":[-1.2561177E0,-1.220019E0,-1.2459277E0,4.8395164E-2,1.2031189E-2,-1.2536379E0,-1.2303818E0,-5.462793E-3,-5.8731586E-2,-1.4743206E-1,-1.2166727E0,-3.039472E-1,-5.89016E-3,-6.8372875E-2,-6.343546E-1,1.8349905E-2,6.5343976E-2,-1.2967004E-2,-5.475231E-2,5.5857915E-3,-1.6797445E-3],"split_indices":[3,15,7,0,0,7,14,0,0,12,15,11,0,13,14,0,0,0,0,0,0],"split_type":[0,0,0,0,0,0,0,0,0,0,0,0,0,0,0,0,0,0,0,0,0],"sum_hessian":[7.0838257E2,2.6216109E0,7.057609E2,1.5998582E0,1.0217527E0,4.198186E0,7.0156274E2,2.231944E0,1.9662418E0,5.333024E0,6.9622974E2,3.588372E0,1.7446523E0,9.721388E0,6.8650836E2,1.1370934E0,2.4512784E0,5.7688084E0,3.9525795E0,1.8163022E2,5.0487814E2],"tree_param":{"num_deleted":"0","num_feature":"21","num_nodes":"21","size_leaf_vector":"1"}},{"base_weights":[5.0521194E-4,8.105823E-1,-3.6161058E-3,4.731981E-2,1.1755943E-2,-7.160664E-1,1.6437806E-3,-5.27487E-3,-5.71101E-2,7.610352E-1,-5.2303113E-3,1.1270455E0,-6.262352E-3,-8.073302E-1,2.6917055E-3,1.7912604E-2,6.379874E-2,5.1205284E-3,-5.4021057E-2,7.759283E-4,-1.4587872E-2],"categories":[],"categories_nodes":[],"categories_segments":[],"categories_sizes":[],"default_left":[0,0,0,0,0,0,0,0,0,0,0,0,0,0,0,0,0,0,0,0,0],"id":33,"left_children":[1,3,5,-1,-1,7,9,-1,-1,11,13,15,-1,17,19,-1,-1,-1,-1,-1,-1],"loss_changes":[2.3708813E0,5.8425426E-2,2.6493685E0,0E0,0E0,1.2275951E0,3.671076E0,0E0,0E0,2.1876638E0,4.4322467E0,6.554556E-2,0E0,1.8054609E0,2.6157002E0,0E0,0E0,0E0,0E0,0E0,0E0],"parents":[2147483647,0,0,1,1,2,2,5,5,6,6,9,9,10,10,11,11,13,13,14,14],"right_children":[2,4,6,-1,-1,8,10,-1,-1,12,14,16,-1,18,20,-1,-1,-1,-1,-1,-1],"split_conditions":[-1.2561177E0,-1.220019E0,-1.2459277E0,4.731981E-2,1.1755943E-2,-1.2536379E0,-1.2303818E0,-5.27487E-3,-5.71101E-2,-1.6053773E0,-1.220019E0,-3.039472E-1,-6.262352E-3,-9.546339E-1,1.8124646E0,1.7912604E-2,6.379874E-2,5.1205284E-3,-5.4021057E-2,7.759283E-4,-1.4587872E-2],"split_indices":[3,15,7,0,0,7,14,0,0,20,15,11,0,17,10,0,0,0,0,0,0],"split_type":[0,0,0,0,0,0,0,0,0,0,0,0,0,0,0,0,0,0,0,0,0],"sum_hessian":[7.082676E2,2.594619E0,7.05673E2,1.5776908E0,1.0169283E0,4.1812882E0,7.0149164E2,2.2315216E0,1.9497666E0,5.308809E0,6.9618286E2,3.5649335E0,1.7438753E0,5.8217735E0,6.903611E2,1.1311741E0,2.4337592E0,1.488423E0,4.3333507E0,6.6245056E2,2.7910526E1],"tree_param":{"num_deleted":"0","num_feature":"21","num_nodes":"21","size_leaf_vector":"1"}},{"base_weights":[4.9385E-4,-2.2010086E-2,1.4697532E-1,-1.5937123E-2,-5.435713E-2,2.2331364E-1,-5.3572094E-1,-4.114185E-3,-5.052872E-1,6.269046E-1,1.2541652E-1,-8.354317E-1,1.1638071E-1,2.7740847E-2,-1.7659639E-1,-7.1443194E-1,2.190671E-2,-6.0831744E-2,8.562172E-1,-3.0515772E-1,3.083443E-1,-6.6246964E-2,6.0663125E-3,-3.328995E-2,4.2349484E-2,-3.4379927E-4,1.4324429E-2,-1.3477108E-2,2.3443041E-2,2.6741964E-3,-6.259586E-2,6.518637E-2,1.1532265E-2,-3.4365524E-2,1.1636732E-2,-7.093499E-3,2.4735255E-2],"categories":[],"categories_nodes":[],"categories_segments":[],"categories_sizes":[],"default_left":[0,0,0,0,0,0,0,0,0,0,0,0,0,0,0,0,0,0,0,0,0,0,0,0,0,0,0,0,0,0,0,0,0,0,0,0,0],"id":34,"left_children":[1,3,5,7,-1,9,11,13,15,17,19,21,23,25,27,29,-1,-1,31,33,35,-1,-1,-1,-1,-1,-1,-1,-1,-1,-1,-1,-1,-1,-1,-1,-1],"loss_changes":[2.3408678E0,3.9645426E0,5.048114E0,3.5450587E0,0E0,3.3098888E0,2.0135665E0,3.2996156E0,3.165197E0,8.0136E0,5.628892E0,3.3641696E0,2.829918E0,4.543449E0,5.7427216E0,5.1075034E0,0E0,0E0,3.9697647E0,4.570225E0,4.249815E0,0E0,0E0,0E0,0E0,0E0,0E0,0E0,0E0,0E0,0E0,0E0,0E0,0E0,0E0,0E0,0E0],"parents":[2147483647,0,0,1,1,2,2,3,3,5,5,6,6,7,7,8,8,9,9,10,10,11,11,12,12,13,13,14,14,15,15,18,18,19,19,20,20],"right_children":[2,4,6,8,-1,10,12,14,16,18,20,22,24,26,28,30,-1,-1,32,34,36,-1,-1,-1,-1,-1,-1,-1,-1,-1,-1,-1,-1,-1,-1,-1,-1],"split_conditions":[5.7452726E-1,2.0811746E0,1.85043E0,1.6017979E0,-5.435713E-2,6.9316226E-1,1.6697028E0,7.4670476E-1,6.419045E-1,-9.298438E-1,-4.3956563E-1,2.112254E0,3.9617717E-1,4.246343E-1,1.8238496E0,-5.8724475E-1,2.190671E-2,-6.0831744E-2,-4.819516E-2,4.5829353E-1,-5.641641E-1,-6.6246964E-2,6.0663125E-3,-3.328995E-2,4.2349484E-2,-3.4379927E-4,1.4324429E-2,-1.3477108E-2,2.3443041E-2,2.6741964E-3,-6.259586E-2,6.518637E-2,1.1532265E-2,-3.4365524E-2,1.1636732E-2,-7.093499E-3,2.4735255E-2],"split_indices":[4,9,10,18,0,4,18,12,19,11,17,4,17,11,20,7,0,0,17,18,12,0,0,0,0,0,0,0,0,0,0,0,0,0,0,0,0],"split_type":[0,0,0,0,0,0,0,0,0,0,0,0,0,0,0,0,0,0,0,0,0,0,0,0,0,0,0,0,0,0,0,0,0,0,0,0,0],"sum_hessian":[7.081451E2,6.1457733E2,9.3567726E1,6.1210236E2,2.4750023E0,8.4762566E1,8.805159E0,5.9864716E2,1.3455202E1,1.54918995E1,6.927067E1,5.839941E0,2.9652178E0,5.0602972E2,9.26174E1,1.1212297E1,2.2429044E0,1.237505E0,1.4254395E1,2.0455189E1,4.8815475E1,3.6087625E0,2.2311783E0,1.4749082E0,1.4903096E0,4.4717712E2,5.8852623E1,8.146836E1,1.1149036E1,4.987314E0,6.224983E0,7.6778784E0,6.5765166E0,1.1796456E1,8.658731E0,1.4360885E1,3.4454594E1],"tree_param":{"num_deleted":"0","num_feature":"21","num_nodes":"37","size_leaf_vector":"1"}},{"base_weights":[3.1782227E-4,4.461356E-1,-7.098011E-3,-2.3364814E-1,8.597278E-1,4.5574617E-1,-1.4385071E-2,-5.977617E-1,2.6134118E-2,-7.6743267E-3,5.6747288E-2,-2.633263E-2,6.9761646E-1,2.0759825E-1,